tree
version=v4
num_class=1
num_tree_per_iteration=1
label_index=0
max_feature_idx=52
objective=binary sigmoid:1
feature_names=sec_exec_ratio sec_entropy_std sec_write_ratio sec_entropy_max sec_exec_count sec_write_count hdr_sizeof_headers datadir_nonempty imp_available imp_func_count imp_dll_count sec_entropy_min hdr_sizeof_code exp_available exp_count hdr_major_subsys_ver sec_rawsize_mean sec_count sec_read_count sec_rawsize_max sec_entropy_mean sec_virtsize_mean gen_size gen_vsize gen_has_debug gen_has_relocations gen_has_resources gen_has_signature gen_has_tls gen_symbols hdr_sizeof_init hdr_sizeof_uninit hdr_sizeof_heap_commit hdr_subsystem hdr_dll_characteristics hdr_magic hdr_major_linker_ver hdr_minor_linker_ver hdr_major_os_ver hdr_minor_os_ver hdr_major_img_ver hdr_minor_img_ver hdr_minor_subsys_ver hdr_file_alignment hdr_machine hdr_timestamp hdr_characteristics datadir_count sec_high_entropy_frac sec_std_name_frac imp_has_gui_libs dd_resource_size dd_cert_present
monotone_constraints=0 0 0 0 0 0 0 0 -1 0 0 0 0 -1 0 0 0 0 0 0 0 0 0 0 0 0 0 0 0 0 0 0 0 0 0 0 0 0 0 0 0 0 0 0 0 0 0 0 0 0 0 0 -1
feature_infos=[0:1] [0:3.9998972415924072] [0:1] [0:8] [0:86] [0:68] [0:4116511488] [0:16] [0:1] [0:8193] [0:138] [0:7.9982686042785645] [0:4291794432] [0:1] [0:22431] [0:28455] [0:669042048] [0:101] [0:101] [0:4014159104] [0:7.9986324310302734] [0:2148173056] [134:99992760] none none none none none none none [0:4116511488] [0:4276001280] [0:1.2137939867577352e+19] [0:0] [0:0] [0:16239] [0:255] [0:255] [0:60334] [0:65494] [0:65535] [0:64740] [0:257] none none none none [0:17] [0:1] [0:1] [0:1] [0:4294967296] [0:1]
tree_sizes=6245 7058 7064 7093 7098 7078 7067 7102 7088 7076 7085 7068 7095 7109 7107 7091 7092 7120 7077 7118 7092 7114 7100 7122 7108 7122 7142 7114 7127 7137 7110 7132 7108 7109 7127 7124 7127 7128 7133 7110 7120 7134 7150 7122 7125 7087 7107 7121 7090 7124 7142 7135 7132 7127 7098 7126 7115 7148 7128 7099 7125 7134 7141 7134 7119 7118 7145 7130 7140 7126 7138 7164 7119 7143 7149 7133 7151 7142 7135 7135 7140 7153 7147 7142 7160 7158 7169 7154 7166 7162 7178 7114 7148 7178 7128 7122 7163 7130 7122 7127 7167 7128 7122 7163 7117 7149 7145 7138 7100 7147 7185 7128 7155 7160 7142 7141 7131 7121 7157 7163 7174 7127 7153 7133 7168 7129 7133 7171 7146 7143 7151 7165 7130 7128 7150 7114 7170 7134 7141 7108 7092 7111 7125 7132 7140 7131 7155 7135 7137 7097 7129 7127 7105 7129 7107 7104 7106 7083 7143 7113 7073 7121 7062 7114 7113 7119 7095 7102 7051 7126 7100 7078 7092 7074 7058 7073 7144 7053 7046 7119 7063 7009 7123 7084 7090 7077 7064 7084 7029 7098 7065 7093 7087 7044 7026 7037 7087 7132 7047 7059 7057 7060 7068 7124 7066 7088 7045 7019 7086 7107 7001 7060 7095 7034 7081 7033 7050 7032 7023 7045 7089 7040 7098 7094 7029 7029 7086 7053 7059 7019 7131 7040 7091 7047 6992 7055 7058 7066 7058 7060 7053 7061 7064 7054 7093 7052 7063 7041 7110 7053 7042 7061 7074 7081 7021 7054 7066 7057 7033 7029 7065 7024 7093 6969 7043 6976 7071 7072 7111 7046 7035 7038 6992 7022 7001 7077 7099 7077 7027 7080 7048 7085 7087 7100 7057 7038 7056 7012 7020 7062 7054 7028 7003 7046 7038 7083 7062 7018 7064 7103 7045 7031 7048 7038 7039 7068 7097 7066 7072 7043 7021 7071 7020 7064 6990 7025 7049 6971 7015 7040 7062 7043 7069 6970 7101 7020 7055 7087 7027 7065 6989 6992 7010 7066 7043 6964 7089 7096 7049 7026 7037 7120 7015 7069 7041 7052 7063 7050 7015 7021 7005 7022 7018 7007 7013 7042 7042 7043 6973 7086 7089 6970 7024 7019 7113 7010 7017 7065 7030 7029 7014 7117 7045 7013 7068 7033 6989 6997 6952 7066 7033 7079 7090 7036 7044 6980 6980 6994 7053 7040 7063 7088 7081 6973 7020 7052 7034 7035 6978 6997 6984 7032 6989 7027 7063 7014 7070 7071 7026 7009 6966 7051 7066 7033 7070 7039 7020 7059 7080 6973 7063 6982 7029 7049 6985 7004 6963 7052 7080 7018 7006 7067 6946 7125 6967 7037 7068 7001 7007 7059 7016 7027 7067 6968 7043 7039 7055 7084 7052 7050 7041 7033 6956 7006 6998 7020 7069 7070 7037 7024 7047 7010 7048 7014 7004 7012 7042 7051 6962 7033 7051 6998 6985 7028 7037 7067 6958 6984 7042 7025 7042 7020 7052 6994 7048 7043 7004 7028 6972 7033 7034 7069 7027 7074 7087 7033 7023 7029 6992 7022

Tree=0
num_leaves=64
num_cat=0
split_feature=7 0 7 3 3 13 2 3 12 3 37 42 22 17 4 13 51 6 7 11 11 36 12 11 2 1 51 2 16 3 1 13 22 30 10 51 37 14 0 22 37 0 3 3 37 7 51 22 12 30 5 51 3 6 11 14 0 51 12 12 2 37 9
split_gain=302474 68393.6 23527.9 23318.1 21083.9 17493.6 7946.47 7510.78 6602.58 6472.36 5526.21 5217.31 4923.82 4494.8 4449.93 3774.29 3546.19 3257.97 3218.68 3190.75 3160.86 3115.81 2396.4 2019.88 2086.44 1991.5 1735.51 1715.66 1579.01 1539.61 2549.4 1539.02 1567.31 1814.08 1505.09 1434.04 1309.4 1283.13 1206.23 1205.37 3226.39 1025.7 1005.19 987.507 960.217 945.834 1031.46 806.278 835.537 802.897 794.305 742.48 716.443 705.158 812.197 701.491 676.372 649.174 624.951 616.883 540.859 514.884 503.669
threshold=7.5000000000000009 0.097619049251079573 8.5000000000000018 6.4411044120788583 7.5549771785736093 1.0000000180025095e-35 0.47493734955787664 7.3471419811248788 3994112.0000000005 7.1084699630737314 4.5000000000000009 1.0000000180025095e-35 658225.50000000012 14.500000000000002 1.5000000000000002 1.0000000180025095e-35 91.500000000000014 1800.0000000000002 5.5000000000000009 2.2792942523956303 0.90301498770713817 12.500000000000002 278784.00000000006 1.0000000180025095e-35 0.42481203377246862 0.39125920832157141 18453.000000000004 0.29705883562564855 26721.746093750004 6.4364173412323007 1.508346736431122 1.0000000180025095e-35 451472.00000000006 73472.000000000015 13.500000000000002 7574.0000000000009 35.500000000000007 1.5000000000000002 0.057189542800188072 1007620.0000000001 31.500000000000004 0.18465909361839297 7.683387517929078 7.2356355190277108 34.500000000000007 5.5000000000000009 282.00000000000006 137220.00000000003 161024.00000000003 5844736.0000000009 5.5000000000000009 7574.0000000000009 7.0675230026245126 3920.0000000000005 1.0000000180025095e-35 31.500000000000004 0.29557368159294134 7930.0000000000009 102144.00000000001 8282648.0000000009 0.54150801897048961 36.500000000000007 737.50000000000011
decision_type=2 2 2 2 2 2 2 2 2 2 2 2 2 2 2 2 2 2 2 2 2 2 2 2 2 2 2 2 2 2 2 2 2 2 2 2 2 2 2 2 2 2 2 2 2 2 2 2 2 2 2 2 2 2 2 2 2 2 2 2 2 2 2
left_child=1 4 3 31 6 7 13 10 12 56 14 23 34 29 -3 16 19 22 51 -13 35 -14 39 38 -25 -18 28 -16 60 -1 -31 32 -2 -34 61 59 -35 49 -4 40 -12 47 -10 -39 -43 -42 -47 48 -40 62 -20 -15 -17 -27 -55 -30 -7 -52 -51 -6 -8 -5 -23
right_child=2 5 11 8 20 9 26 -9 42 -11 17 15 21 18 27 52 25 -19 50 -21 -22 37 -24 24 -26 53 -28 -29 55 30 -32 -33 33 36 -36 -37 -38 43 41 -41 45 44 -44 -45 -46 46 -48 -49 -50 58 57 -53 -54 54 -56 -57 -58 -59 -60 -61 -62 -63 -64
leaf_value=-0.092998994108348901 -0.074533884981983684 0.032087076776997236 0.095103578154425619 -0.048952879581151833 0.092772198731501054 -0.069358503758084264 -0.07452830188679245 0.096523275998106367 -0.082575409585055895 0.032087076776997236 0.032087076776997236 -0.050715277921781793 -0.046862951279355067 0.064788379664412726 0.032087076776997236 -0.091411603471904981 0.092776057791537678 0.032087076776997236 -0.071101531143154456 0.091447827097373924 -0.056284760845383766 0.075254602819601432 0.038091957981746166 -0.094296576009132008 0.076388888888888895 -0.050715277921781793 -0.096252465483234725 0.096693670552591718 0.071849624060150372 0.087441860465116289 -0.07515040544075334 -0.090392483709652985 0.070957095709570969 -0.06749881122206372 0.059698492462311563 -0.061339421613394222 0.0014386734942696904 -0.069292604501607721 -0.096007259528130676 0.098341946124244101 0.097119427463843749 -0.064248403946604762 0.0035610040863981321 0.056062992125984257 0.042391304347826092 0.079037186509080426 0.032087076776997236 -0.089270102000264945 0.067262723521320497 -0.077326565143824022 0.03165644171779141 -0.053074433656957937 -0.050715277921781793 0.082740021574973038 -0.050715277921781793 -0.081993569131832811 0.024187725631768953 -0.080610889774236388 0.042981908920773554 -0.037234042553191488 0.025477707006369428 -0.00073647134165866158 -0.060869565217391314
leaf_weight=8697.75 5621.5 7697.75 131.75 1909 3783 2859.5 317 39605.25 1631.75 1819.75 2519 450 712.25 997.25 777 3829.75 241.25 1199 1680.75 1074.75 448.5 6258.75 2902.5 49057.25 179 2379 252.5 3794.75 1661.5 321.5 954.75 6598 377.75 2102 496.5 163.25 1024.25 310 136.75 11367.75 8382.75 429.75 427.25 316.5 413 4335.25 636 1886.25 180.75 146.75 406.5 153.5 393.75 230.75 172.25 76.75 206.75 187.25 399.75 93 234.5 779.75 68
leaf_count=34791 22486 30791 527 7636 15132 11438 1268 158421 6527 7279 10076 1800 2849 3989 3108 15319 965 4796 6723 4299 1794 25035 11610 196229 716 9516 1010 15179 6646 1286 3819 26392 1511 8408 1986 653 4097 1240 547 45471 33531 1719 1709 1266 1652 17341 2544 7545 723 587 1626 614 1575 923 689 307 827 749 1599 372 938 3119 272
internal_value=-1.5083e-05 0.0562475 -0.0675882 -0.0306426 -0.0261781 0.0753604 -0.0531284 0.080759 0.0176726 -0.0165848 0.066441 -0.0852068 0.0325598 -0.0685043 0.0379895 -0.049507 -0.017894 0.0775773 -0.0190806 0.0442569 0.0695461 0.0530257 0.0812999 -0.0911801 -0.0936745 -0.0492436 0.0279072 0.082352 0.0416348 -0.0854737 -0.0341554 -0.0719896 -0.0586753 -0.0324108 -0.020204 0.0835282 -0.0449197 0.0625171 -0.0525202 0.0859022 0.0769875 -0.0589336 -0.0647087 -0.0059761 -0.012 0.0868626 0.069551 -0.0768681 -0.00313972 0.0687602 -0.0535487 0.0490341 -0.0835365 -0.0507153 0.0212871 0.0650137 -0.0630451 -0.00382514 0.0105936 0.0896441 -0.0320362 -0.0349754 0.0737822
internal_weight=198898 108532 90365.8 29179.8 20429.2 88103 15941.5 83217 13456.2 4886 43611.8 61186 11397.2 13399.2 12269.5 8771.5 4548 31342.2 3425.25 1524.75 4487.75 8212 30143.2 52414.5 49236.2 3023.25 2542.25 4571.75 2289.75 9974 1276.25 15723.5 9125.5 3504 3185.25 4039.25 3126.25 7499.75 3178.25 27240.8 15873 3046.5 2059 626.5 842.75 13354 4971.25 2203.75 317.5 6873.25 2274.5 1150.75 4223.5 2782 403 1738.25 3066.25 593.75 546.5 3876 551.5 2688.75 6326.75
internal_count=795592 434129 361463 116719 81717 352412 63766 332868 53825 19544 174447 244744 45589 53597 49078 35086 18192 125369 13701 6099 17951 32848 120573 209658 196945 12093 10169 18287 9159 39896 5105 62894 36502 14016 12741 16157 12505 29999 12713 108963 63492 12186 8236 2506 3371 53416 19885 8815 1270 27493 9098 4603 16894 11128 1612 6953 12265 2375 2186 15504 2206 10755 25307
is_linear=0
shrinkage=0.05


Tree=1
num_leaves=64
num_cat=0
split_feature=7 0 7 3 3 13 22 5 2 3 14 20 17 39 2 11 30 3 7 17 22 16 20 30 3 31 36 3 13 22 30 51 51 51 3 2 0 31 36 9 0 51 2 20 5 51 2 21 15 7 0 51 20 9 14 51 0 2 7 0 22 51 0
split_gain=273063 61614.2 21508 20997 19106.7 15668.3 7182.89 8334.56 7123.75 5999.65 5760.6 5645.7 4091.39 3692.62 5637.13 3653.04 3447.18 5132.25 2881.82 2782.04 2776.44 3513.79 2707.12 2085.99 1815.68 1734.2 1703.28 1611.21 1404.08 1424.95 1594.12 1396.92 1218.41 1215.83 1120.09 1103.73 2700.58 1263.82 1008.62 1007.54 1046.06 827.33 824.182 752.12 714.397 691.988 691.544 668.158 638.423 622.317 585.059 567.888 529.901 513.465 494.659 494.645 490.689 569.917 474.262 465.134 462.188 697.274 434.111
threshold=7.5000000000000009 0.097619049251079573 8.5000000000000018 6.4411044120788583 7.5549771785736093 1.0000000180025095e-35 586232.00000000012 2.5000000000000004 0.47493734955787664 7.1084699630737314 1.5000000000000002 0.97548621892929088 14.500000000000002 1.5000000000000002 0.23904761672019961 2.4636576175689702 369408.00000000006 7.5189507007598886 5.5000000000000009 3.5000000000000004 318704.00000000006 1030034.4687500001 4.7563803195953378 492288.00000000006 7.7233202457427987 5376.0000000000009 12.500000000000002 7.5549771785736093 1.0000000180025095e-35 353289.50000000006 73472.000000000015 18453.000000000004 1.0000000180025095e-35 7574.0000000000009 7.5988781452178964 0.29705883562564855 0.23764705657958987 84992.000000000015 6.5000000000000009 20.500000000000004 0.15192308276891711 91.500000000000014 0.54150801897048961 5.5618612766265878 5.5000000000000009 7410.0000000000009 0.23904761672019961 1500020.3750000002 4.5000000000000009 9.5000000000000018 0.29557368159294134 7246.0000000000009 2.2618795633316044 737.50000000000011 31.500000000000004 91.500000000000014 0.15192308276891711 0.36285266280174261 5.5000000000000009 0.21825397014617923 650869.00000000012 262.00000000000006 0.35960590839385992
decision_type=2 2 2 2 2 2 2 2 2 2 2 2 2 2 2 2 2 2 2 2 2 2 2 2 2 2 2 2 2 2 2 2 2 2 2 2 2 2 2 2 2 2 2 2 2 2 2 2 2 2 2 2 2 2 2 2 2 2 2 2 2 2 2
left_child=1 4 3 28 8 6 7 38 12 50 20 23 22 35 -15 34 48 -18 45 -6 -5 26 -1 49 -12 42 -22 -23 29 -2 -31 54 -24 43 -16 37 -37 -13 59 58 -41 46 -10 -21 -20 -14 -28 -45 62 -4 -7 -46 -29 60 -27 -17 -32 -58 -9 -3 61 -43 -8
right_child=2 5 11 10 19 9 16 39 25 -11 24 13 18 14 15 55 17 -19 44 33 21 27 32 -25 -26 31 41 52 -30 30 56 -33 -34 -35 -36 36 -38 -39 -40 40 -42 53 -44 47 51 -47 -48 -49 -50 -51 -52 -53 -54 -55 -56 -57 57 -59 -60 -61 -62 -63 -64
leaf_value=-0.086787602407876141 -0.07078892694507169 0.030654629690187386 -0.056012223076110361 -0.037016134616660083 -0.093682701190893364 -0.065985187021999375 0.030654629690187386 0.093604466439831654 -0.0859643800502633 0.030654629690187386 -0.074255414204504475 -0.089353743117184914 0.062309159905426438 -0.083248848510491483 -0.069590980329593294 0.093546364329576345 0.030654629690187386 0.089013875478665377 -0.067083881024873601 0.090646241619237719 -0.036040213532668064 -0.066230596096197761 -0.091316676258493892 -0.079254243693728063 0.034980559053467961 0.070683694216540693 -0.0088157970133514434 0.085883165820937551 -0.085955580205267515 0.061766122344185506 -0.065273392823934878 -0.091264951899107508 0.095608953948969941 -0.058558095892005238 0.063927922391236083 -0.075297686117354934 0.077760588880552609 0.036707692151566211 0.030654629690187386 0.030654629690187386 0.092212946958913022 -0.0084723773341261292 0.024374660314466855 0.056563428843024816 0.030968202626623809 -0.050183833229821888 0.089212343868273702 -0.074177880359229939 0.092593751610290612 0.088609574862819632 0.021115625302898511 -0.073528086718055358 0.0027272471297222775 -0.058890078626199098 -0.074163342253442649 -0.062018875686412192 -0.034033497253616929 0.078815255660965824 0.056201770963168342 0.089855801062605517 0.075244166896600018 0.077666910823733906 0.090210621586005624
leaf_weight=9543.3009777367115 5220.2466528117657 206.02933770418167 82.358042031526566 1283.1520093530416 254.54258538782597 2870.2966455370188 315.99901862442493 9003.5123658031225 410.10468937456608 1815.2826752364635 1952.746473684907 51589.815029263496 987.21369682252407 3577.1127554178238 873.75727447867393 1000.1575322896242 4615.1723994314671 7037.5952569246292 1681.1244188249111 3441.4541943520308 472.6645674854517 942.76415641605854 121.25782538950443 309.30346108973026 471.74405372142792 1610.492997944355 673.50103978812695 264.9953420907259 6570.5692367553711 399.99384027719498 1487.139949887991 154.64155614376068 303.4206989556551 160.09936101734638 190.62606824934483 2116.2075844705105 332.77181461453438 199.08988511562347 10675.650508314371 788.97848822176456 804.48548078536987 442.29428395628929 287.05457553267479 477.11162263154984 397.65035633742809 157.88628888130188 244.41382330656052 121.90945889055729 47121.247893407941 712.98102104663849 206.219831854105 191.94693726301193 685.03604851663113 77.927113398909569 60.399593621492386 53.183189511299133 1897.243516638875 117.95520335435867 941.65456683933735 1204.623636931181 5453.8581999391317 499.66531713306904 330.80392456054688
leaf_count=38253 20910 825 330 5135 1019 11495 1265 36094 1643 7263 7819 206810 3953 14330 3500 4009 18473 28216 6733 13795 1892 3777 486 1239 1888 6450 2697 1061 26336 1602 5954 620 1216 641 763 8479 1333 797 42742 3159 3223 1770 1149 1912 1591 632 979 488 188900 2857 825 769 2742 312 242 213 7595 472 3772 4826 21846 2000 1325
internal_value=-9.40433e-05 0.0534245 -0.0643547 -0.0290271 -0.0249498 0.0715719 0.0766942 0.0533691 -0.0505825 -0.0153849 0.0167789 -0.0812301 -0.0651089 -0.0832947 -0.044981 0.0196672 0.0859669 0.0615732 -0.0178774 0.0665598 0.0321049 0.0411979 -0.0812908 0.0307546 -0.0529952 0.0264806 0.0559169 -0.0199549 -0.0683272 -0.0556223 -0.0326891 0.0520921 0.0421472 0.07629 -0.0456408 -0.0873166 -0.0544766 -0.0888684 0.0306546 0.0841528 0.0471953 0.0618012 -0.0405626 0.0816464 -0.0504837 0.0467684 0.0173549 0.0298764 0.0919162 0.0735823 -0.0601418 -0.00311809 0.0259881 0.0680996 0.0654065 0.0856405 -0.0434912 -0.0273923 0.090069 0.0772256 0.0696558 0.0372544 0.042485
internal_weight=198494 108299 90195.3 29157.9 20361.6 87937.6 83045.8 23624.9 15906.5 4891.8 13464.8 61037.4 13383.8 59932.7 5694.84 2117.72 59420.8 11652.8 3415.82 4455.12 11040.3 9757.12 9967.98 1104.64 2424.49 2522.69 7864.32 1892.8 15693.1 9122.58 3902.33 1825.53 424.679 4200.57 1064.38 54237.9 2448.98 51788.9 12086.3 11538.6 1593.46 7391.66 697.159 4040.48 2270.72 1145.1 917.915 599.021 47768.1 795.339 3076.52 589.597 950.031 6473.74 1670.89 1053.34 3502.34 2015.2 9945.17 1410.65 6395.82 941.96 646.803
internal_count=795442 433995 361447 116787 81592 352403 332820 94641 63737 19583 53918 244660 53633 240234 22815 8485 238179 46689 13678 17855 44211 39076 39955 4426 9707 10104 31496 7580 62869 36533 15623 7312 1702 16836 4263 217419 9812 207607 48393 46248 6382 29604 2792 16195 9093 4585 3676 2400 191490 3187 12320 2360 3803 25928 6692 4222 14021 8067 39866 5651 25616 3770 2590
is_linear=0
shrinkage=0.05


Tree=2
num_leaves=64
num_cat=0
split_feature=7 0 7 3 3 14 22 37 2 3 12 20 49 22 12 6 7 3 39 2 11 36 17 3 20 7 30 32 12 31 37 49 30 51 10 2 12 3 2 0 31 51 14 14 40 51 12 31 3 3 38 17 2 37 5 51 22 30 2 37 4 51 0
split_gain=247233 55779 19647.9 19123.4 17408.9 14123.6 6666.59 9579.34 6436.13 6273.92 5503.06 5094 4236 4143.51 4027.6 3774.3 3575.45 3532.93 3389.11 5161.96 3301.59 2650.87 2593.25 2584.42 2316.27 2277 1897.65 1830.26 1671.31 1546.31 1299.48 1296.93 1263.39 1247.57 1239.73 1124.83 1123.31 1097.73 1050.43 2504.45 1158.06 1047.14 1037.38 1011.88 1030.03 979.011 911.991 906.897 831.681 828.799 799.181 784.055 757.385 753.71 1189.4 944.34 729.447 2350.35 728.568 687.31 641.701 640.625 618.076
threshold=7.5000000000000009 0.093073595315217986 8.5000000000000018 6.4411044120788583 7.5189507007598886 1.0000000180025095e-35 586232.00000000012 30.500000000000004 0.47493734955787664 7.683387517929078 3994112.0000000005 0.97548621892929088 0.75735294818878185 663556.00000000012 1533184.0000000002 3920.0000000000005 5.5000000000000009 7.5189507007598886 1.5000000000000002 0.23904761672019961 2.2792942523956303 12.500000000000002 3.5000000000000004 6.4766626358032235 4.7563803195953378 5.5000000000000009 492288.00000000006 1.0000000180025095e-35 2853632.0000000005 5376.0000000000009 35.500000000000007 0.85164836049079906 506624.00000000006 18453.000000000004 13.500000000000002 0.44097222387790685 7936.0000000000009 7.8234643936157235 0.29705883562564855 0.23764705657958987 84992.000000000015 68.000000000000014 1.5000000000000002 1.0000000180025095e-35 1.0000000180025095e-35 2270.0000000000005 9952.0000000000018 65280.000000000007 7.683387517929078 7.2356355190277108 4.5000000000000009 4.5000000000000009 0.54150801897048961 32.500000000000007 1.5000000000000002 91.500000000000014 1108356.5000000002 209664.00000000003 0.44097222387790685 31.500000000000004 1.5000000000000002 91.500000000000014 0.29557368159294134
decision_type=2 2 2 2 2 2 2 2 2 2 2 2 2 2 2 2 2 2 2 2 2 2 2 2 2 2 2 2 2 2 2 2 2 2 2 2 2 2 2 2 2 2 2 2 2 2 2 2 2 2 2 2 2 2 2 2 2 2 2 2 2 2 2
left_child=1 4 3 30 8 6 7 16 12 62 13 26 25 34 50 31 27 32 38 -20 37 -15 -6 47 -14 59 -4 -3 -24 52 56 -9 -16 -31 -5 -17 -26 -21 40 -40 -13 -34 53 44 -32 -33 -25 -18 -12 -44 60 -11 -10 54 55 -23 -2 -58 -47 -1 -8 -22 -7
right_child=2 5 11 10 22 9 14 15 29 51 48 18 24 21 17 35 23 -19 19 20 61 42 28 46 36 -27 -28 -29 -30 33 43 45 41 -35 -36 -37 -38 -39 39 -41 -42 -43 49 -45 -46 58 -48 -49 -50 -51 -52 -53 -54 -55 -56 -57 57 -59 -60 -61 -62 -63 -64
leaf_value=-0.0080817937336871513 -0.080493676228716116 -0.072984700070034436 0.070113980293723746 -0.031940974488375164 -0.089356416169751929 -0.061490795209212128 0.034147153071462447 0.090073495295524872 -0.08154066888785734 0.0044162045577097134 -0.07547534772191275 -0.085430386851722676 -0.08454292323015794 -0.042892985220235602 0.047517914138414059 -0.090947279496898001 -0.044399443100119562 0.07896573461647946 -0.079475099726346837 -0.069174340770065484 0.089706819289376391 -0.066111933592837721 0.083723753050489153 -0.047486270704556785 -0.091742950432646075 -0.045460716607233338 -0.076093322860340373 0.062696679627254739 -0.015897850569615058 0.062094337183201599 -0.010447796111468717 0.065441569212997583 0.067006254753547975 -0.087563885201786984 0.054288683564084166 0.082977069457691996 0.091406625251441054 0.067179065599489662 -0.071535068485958239 0.075728481266842479 0.034380788932971112 -0.03850361118626161 -0.062383214701507664 -0.075553396931508254 -0.090121243265368162 -0.1001939487724528 0.054759987430473923 0.092235842867214757 0.0027558641316234311 0.052811585145538568 0.087894673597811931 0.084664356201028176 0.024571566807660955 0.078831107937702011 0.078613233987661846 0.033752288817924213 0.059070267275571367 -0.072525308807351169 0.035623212552161547 0.066948753742131148 0.085145002021721983 -0.065472385332076208 0.01703617019292742
leaf_weight=501.34992280602455 9032.6192204207182 272.10898743569851 790.035534709692 2696.7333085685968 261.79456230998039 2959.7507664263248 1282.11098960042 9474.2797097861767 410.70282524824142 403.10316717624664 1626.191453397274 51250.35730227828 9297.0343287289143 722.00007675588131 1003.4483511149883 435.45295375585556 3615.069443076849 3262.1600175350904 3570.9743540287018 844.5366608351469 1019.4875147491693 280.18342886865139 3756.2833330780268 262.41531749069691 117.43355073034763 2322.7208264023066 307.55193474888802 2780.1710463166237 473.80721102654934 1655.1126776784658 2337.2922403663397 4775.1879787147045 276.67574070394039 151.16723969578743 492.06073462963104 117.2762341350317 285.12350197136402 177.98558999598026 2098.2553681731224 333.91059097647667 201.99037973582745 1536.6728633195162 309.15465074777603 1459.126363158226 489.94512467086315 154.03808651864529 1270.9582048803568 124.7541718930006 429.29308816790581 313.45402386784554 50519.025755643845 1243.2742182761431 283.64395874738693 3586.5945036113262 1484.5836566537619 1497.5960124582052 412.68916407227516 1890.3200119435787 271.00869573652744 778.44434154033661 1191.8261233568192 70.44634784758091 273.32889950275421
leaf_count=2015 36355 1090 3181 10804 1053 11892 5152 38215 1653 1614 6540 206713 37484 2895 4026 1744 14476 13162 14374 3395 4112 1122 15144 1052 473 9331 1237 11167 1903 6653 9380 19168 1108 610 1975 473 1150 712 8442 1340 809 6154 1243 5882 1968 617 5098 500 1718 1256 203779 4978 1136 14419 5971 6020 1658 7602 1090 3126 4807 283 1094
internal_value=-9.28277e-05 0.0509415 -0.0614068 -0.0275994 -0.0237407 0.0682624 0.0731439 0.0506475 -0.04843 -0.0143952 0.0161332 -0.0776004 -0.0622644 0.029731 0.0821125 0.0742245 0.00752164 0.0435541 -0.0795672 -0.042833 0.0191164 0.0485491 0.0631094 -0.0174071 -0.0794585 -0.0159608 0.0291137 0.0505808 0.0725641 0.0251574 -0.0652163 0.0790561 0.00253011 0.0495279 -0.0186221 -0.0539614 0.0378835 -0.0453975 -0.0834408 -0.0512945 -0.0849594 -0.0223771 0.05739 -0.0417488 -0.0242818 0.0589701 0.0372424 -0.0398181 -0.0591432 -0.00439639 0.0865347 0.0650308 -0.0382203 0.0630065 0.0455904 0.0179851 -0.0740856 -0.0489286 -0.0137169 0.0375727 0.05874 0.0796262 -0.0548488
internal_weight=197524 107799 89725.4 29059.8 20294.6 87504.1 82624.6 23552.7 15802.7 4879.46 13437.8 60665.5 13302.1 11382.4 59071.9 15227.2 8325.48 6078.96 59567.9 5683.43 2112.46 8193.57 4491.89 5273.2 9699.59 3602.52 1097.59 3052.28 4230.09 2500.63 15622 14674.5 2816.8 1806.28 3188.79 552.729 402.557 1022.52 53884.5 2432.17 51452.3 1813.35 7471.57 4286.36 2827.24 5200.23 1533.37 3739.82 2055.48 622.609 52993 1646.38 694.347 6848.96 3262.36 1777.78 11335.6 2303.01 425.047 1279.79 2473.94 1089.93 3233.08
internal_count=795593 434187 361406 116808 81731 352456 332878 94690 63631 19578 53963 244598 53579 45705 238188 61307 33383 24450 240180 22876 8502 32926 18100 21126 39107 14472 4418 12257 17047 10052 62845 59090 11288 7263 12779 2217 1623 4107 217304 9782 207522 7262 30031 17230 11348 20875 6150 14976 8258 2499 213738 6592 2789 27532 13113 7142 45615 9260 1707 5141 9959 4395 12986
is_linear=0
shrinkage=0.05


Tree=3
num_leaves=64
num_cat=0
split_feature=7 0 7 48 13 48 22 37 13 22 2 48 20 49 12 37 39 2 11 2 49 7 6 20 30 51 30 12 31 0 30 22 49 20 51 2 0 31 40 12 12 12 36 0 38 51 4 22 37 5 38 7 2 9 4 51 20 37 37 1 12 40 0
split_gain=225420 50939.5 17940.4 15105.5 12964.4 11998.7 6105.49 7332.64 6075.46 5670.52 5599.8 4921.74 4735.94 3838.23 3746.99 3150.38 3075.66 4675.01 3017.07 2689.76 2250.3 2065.23 2028.13 1950.41 1897.01 1825.55 1720.31 1574.35 1461.5 1385.54 1384.06 1395.62 1147.36 1054.71 1010.15 956.765 2254.62 1045.96 932.927 929.084 873.054 820.334 776.254 769.344 765.874 695.226 615.776 579.631 578.226 568.84 556.008 545.596 544.418 542.652 540.181 535.122 487.707 444.278 434.641 431.123 949.075 417.049 405.855
threshold=7.5000000000000009 0.093073595315217986 8.5000000000000018 0.048809524625539787 1.0000000180025095e-35 0.054093567654490478 586232.00000000012 32.500000000000007 1.0000000180025095e-35 366596.00000000006 0.47493734955787664 0.032100668177008636 0.97548621892929088 0.78174602985382091 1533184.0000000002 32.500000000000007 1.5000000000000002 0.23904761672019961 2.4571294784545903 0.030414746142923835 0.69615384936332714 5.5000000000000009 3920.0000000000005 4.7563803195953378 113408.00000000001 7574.0000000000009 492288.00000000006 2638080.0000000005 5376.0000000000009 0.31801471114158636 5844736.0000000009 366596.00000000006 0.85164836049079906 4.609189748764039 18453.000000000004 0.29705883562564855 0.23764705657958987 84992.000000000015 1.0000000180025095e-35 3136.0000000000005 3090176.0000000005 277248.00000000006 12.500000000000002 0.17914438992738727 4.5000000000000009 282.00000000000006 1.5000000000000002 145932.00000000003 31.500000000000004 5.5000000000000009 4.5000000000000009 9.5000000000000018 0.54150801897048961 350.50000000000006 1.5000000000000002 5878.0000000000009 2.2618795633316044 35.500000000000007 36.500000000000007 2.3238158226013188 237824.00000000003 1.0000000180025095e-35 0.19375000149011615
decision_type=2 2 2 2 2 2 2 2 2 2 2 2 2 2 2 2 2 2 2 2 2 2 2 2 2 2 2 2 2 2 2 2 2 2 2 2 2 2 2 2 2 2 2 2 2 2 2 2 2 2 2 2 2 2 2 2 2 2 2 2 2 2 2
left_child=1 3 5 10 6 8 7 -3 9 -2 13 54 26 21 44 24 35 -18 43 -5 -16 48 32 -15 41 40 51 33 52 59 31 -7 -9 -17 57 37 62 -14 -31 -25 47 -11 -33 -19 46 -34 -8 -21 -1 50 -23 -4 -12 -46 -6 -51 -32 -30 -39 -26 -61 -35 -37
right_child=2 4 12 19 11 30 14 22 -10 15 28 -13 16 23 20 27 17 18 -20 25 -22 49 -24 39 29 -27 -28 -29 34 38 56 42 45 61 -36 36 -38 58 -40 -41 -42 -43 -44 -45 53 -47 -48 -49 -50 55 -52 -53 -54 -55 -56 -57 -58 -59 -60 60 -62 -63 -64
leaf_value=-0.0066395099272321722 -0.049879658882558763 0.028069804972726639 -0.055883719300296723 -0.086152992324189437 -0.062655551114516247 -0.031784102191375167 0.031606210477693603 0.086619996991220985 -0.076511354716025978 0.080772654679396705 -0.078709166881526793 0.028069804972726639 -0.081930394129165779 -0.081617830998840929 0.076197737673798532 0.00099283639913986805 -0.076150250937931818 -0.062996817867098931 0.078797137370599193 -0.056887944228891686 0.028069804972726639 -0.069818206537777538 0.028069804972726639 -0.08712405000601714 -0.049879658882558763 -0.058863662945668006 -0.072276658497974641 -0.043400347461828463 -0.052207399236311514 0.089240538493809515 0.073949061513328571 -0.0092070772767713933 0.067121773848848029 0.067215668101317627 -0.082923435781268345 -0.078042766979585287 0.070888209689963941 -0.090132203122618243 -0.049879658882558763 0.087753690766337461 -0.00039379976033625464 -0.049879658882558763 0.066665096151965114 0.041863292710706775 0.084991660397825367 0.028069804972726639 0.081868498423597613 0.081568662502108757 0.062889399965133139 0.03747804437733581 0.016131614968439088 0.081813945741192273 0.015342082720680633 0.038861397269267996 0.0057394989396991466 -0.060459831043138103 -0.028851848322436147 0.065415331645607186 0.076890657898577075 0.080791154967444087 -0.049879658882558763 -0.049879658882558763 -0.017104414417851235
leaf_weight=491.17323313653469 6290.0528483092785 8460.5811360478401 79.375677570700645 320.21160946786404 2681.261144593358 460.44864559173584 1274.5359427034855 9271.3345021158457 8323.6399238705635 541.74700628221035 380.88578483462334 1842.7585186809301 50821.254568174481 9003.938352778554 2903.5111891925335 875.56867508590221 3548.0186397135258 839.84754548966885 1033.6609175205231 76.455794230103493 3161.767386674881 1476.9727623164654 544.61028285324574 106.69327199459076 3048.7223067581654 284.65345029532909 302.47395025193691 538.41971123218536 84.137539863586426 330.57784929871559 132.68592527508736 369.84061747789383 3930.7399685233831 2546.6768037974834 135.17663618922234 1766.8303925693035 335.35577946901321 51.994197145104408 113.70964853465557 257.16361171007156 381.8467920422554 144.50494794547558 3782.7165161371231 220.11266033351421 49429.22494405508 1146.6069299578667 1170.2779416143894 3812.8440803736448 762.67043943703175 349.38173113763332 215.22737811505795 706.9196325391531 257.2224073857069 648.27808700501919 323.3282905369997 230.7077452391386 842.35379599034786 1488.1201046556234 146.54021906852722 202.40003088116646 329.44164389371872 44.001124650239944 323.95492759346962
leaf_count=1974 25409 33985 318 1299 10827 1847 5134 37780 33781 2184 1545 7402 206952 36642 11810 3520 14393 3395 4211 310 12712 5958 2187 434 12297 1147 1225 2171 339 1334 534 1486 15859 10278 551 7160 1352 208 458 1048 1534 581 15282 884 201375 4616 4765 15507 3076 1398 869 2867 1031 2627 1301 930 3385 6012 588 821 1331 177 1307
internal_value=-0.000122226 0.0488291 -0.0588591 -0.0228613 0.0654452 -0.0264914 0.0701453 0.0485242 -0.0422541 -0.023248 -0.0473695 -0.0140057 -0.0744126 -0.0602959 0.0787629 0.00348374 -0.0763167 -0.0411943 0.018053 0.0537307 0.0415429 -0.0158258 0.071508 -0.0770314 -0.0242294 0.0635794 0.0288978 0.0360834 0.0236851 -0.0373314 0.0393116 0.05075 0.0761519 0.0484388 0.0478065 -0.0800233 -0.0493094 -0.0814829 0.0458735 0.0363763 0.0717515 0.052556 0.0599071 -0.0412025 0.0830601 0.0570235 0.0556893 0.078833 0.035669 -0.0442437 -0.0588834 0.0678602 -0.0408323 0.0843953 -0.055296 -0.0015099 -0.014801 0.0590917 0.0329165 -0.0476656 -0.00448832 0.0644675 -0.0686134
internal_weight=195998 106904 89093.8 20115.5 86788.8 28917.5 81941.5 23353.9 23329.5 15005.8 15239.5 4847.35 60176.3 12893.9 58587.6 8715.77 59087.6 5641.64 2093.62 4876.01 6065.28 3526.13 14893.3 9367.8 4711.1 4555.8 1088.77 4004.67 2345.54 4024.85 5588.05 4613.01 14348.7 3466.25 1707.43 53445.9 2426.14 51019.8 444.287 363.857 4271.15 686.252 4152.56 1059.96 52522.3 5077.35 2444.81 3889.3 1253.84 2272.29 1692.2 786.295 638.108 50077.5 3004.59 580.089 975.04 1572.26 198.534 3580.56 531.842 2590.68 2090.79
internal_count=795720 433984 361736 81604 352380 116876 332850 94427 94342 60561 61807 19530 244860 52329 238423 35152 240450 22883 8490 19797 24522 14205 60442 38124 19006 18498 4410 16146 9478 16241 22534 18615 58255 13975 6902 217567 9819 207748 1792 1482 17351 2765 16768 4279 213901 20475 9899 15817 5050 9155 6827 3185 2576 204002 12128 2328 3919 6351 796 14449 2152 10455 8467
is_linear=0
shrinkage=0.05


Tree=4
num_leaves=64
num_cat=0
split_feature=7 0 7 3 3 13 3 2 12 3 37 42 49 22 4 13 6 10 37 11 36 12 7 11 2 2 37 31 37 10 51 51 3 1 22 37 49 14 13 0 0 37 3 37 5 51 3 51 40 22 30 2 37 3 2 42 49 22 30 2 12 30 31
split_gain=205088 46094.4 16463 16205.4 14401.7 11561.1 6063.53 5380.76 4670.48 4644.45 4626.14 3689.17 3643.79 3417.87 3050.59 2618.13 2520.99 2515.54 2563.38 2246.41 2204.7 1926.19 1888.2 1521.65 1448.27 1380.38 1312.84 1309.22 1150.41 1089.4 1048.88 1039.18 963.521 1692.62 909.462 2374.2 1056.91 872.19 845.238 842.783 851.651 768.257 713.033 687.414 1073.07 830.382 669.931 656.016 622.816 611.128 1984.54 605.424 581.665 552.685 536.911 606.02 536.287 529.862 585.987 526.432 509.203 484.389 467.278
threshold=7.5000000000000009 0.097619049251079573 8.5000000000000018 6.4411044120788583 7.5549771785736093 1.0000000180025095e-35 7.3471419811248788 0.47493734955787664 3994112.0000000005 7.1084699630737314 4.5000000000000009 1.0000000180025095e-35 0.75735294818878185 663556.00000000012 1.5000000000000002 1.0000000180025095e-35 1800.0000000000002 3.5000000000000004 27.500000000000004 0.85572731494903576 12.500000000000002 278784.00000000006 5.5000000000000009 1.0000000180025095e-35 0.42481203377246862 0.29705883562564855 34.500000000000007 5376.0000000000009 35.500000000000007 13.500000000000002 7574.0000000000009 18453.000000000004 6.4320840835571298 1.5169755816459658 1007620.0000000001 32.500000000000007 0.85164836049079906 1.5000000000000002 1.0000000180025095e-35 0.057189542800188072 0.18465909361839297 34.500000000000007 7.683387517929078 32.500000000000007 1.5000000000000002 91.500000000000014 7.2914326190948495 282.00000000000006 1.0000000180025095e-35 804884.00000000012 65792.000000000015 0.54150801897048961 31.500000000000004 7.0675230026245126 0.31414473056793218 1.5000000000000002 0.87083333730697643 137220.00000000003 143104.00000000003 0.13961039483547213 213760.00000000003 627968.00000000012 290304.00000000006
decision_type=2 2 2 2 2 2 2 2 2 2 2 2 2 2 2 2 2 2 2 2 2 2 2 2 2 2 2 2 2 2 2 2 2 2 2 2 2 2 2 2 2 2 2 2 2 2 2 2 2 2 2 2 2 2 2 2 2 2 2 2 2 2 2
left_child=1 4 3 28 7 6 10 12 13 -7 14 23 22 29 -3 17 21 18 -13 30 -15 34 52 39 -25 -16 61 51 49 -5 -6 -29 62 -34 35 -12 -37 43 48 -4 57 -42 -10 44 45 -22 -39 -38 60 -2 -51 -9 -1 -17 55 -24 -23 58 -41 -47 -30 -20 -14
right_child=2 5 11 8 19 9 -8 27 42 -11 16 15 32 20 25 53 -18 -19 26 -21 37 56 54 24 -26 -27 -28 31 38 -31 -32 -33 33 -35 -36 36 47 46 -40 40 41 -43 -44 -45 -46 59 -48 -49 -50 50 -52 -53 -54 -55 -56 -57 -58 -59 -60 -61 -62 -63 -64
leaf_value=-0.007707294193496245 -0.075233324587551109 0.027319948299682945 0.082089219650158446 -0.029098190515532321 0.075707434827789286 -0.052384808323007515 0.081555688997196937 -0.075279749600887361 -0.070084241466607661 0.027319948299682945 0.027319948299682945 -0.042307378252280398 -0.081516279491018126 -0.039001883201744761 0.027319948299682945 -0.077164898250943151 0.027319948299682945 -0.042307378252280398 0.07335339827933833 -0.047849331420229541 -0.06329984910169259 0.057665982128833254 0.02429327487039367 -0.079418364862641255 0.064345809107064042 0.082091013576843452 -0.042307378252280398 0.056915835306421469 -0.028705971776776792 0.051881871108903105 -0.053875584748604488 -0.080796949943066909 0.073428773687047158 -0.065232481293471326 0.083171670122544672 0.083839529911372029 0.064378708992152187 -0.056325019489871835 -0.069333364955129942 -0.083487569240061399 -0.052426406496866473 0.043528165743775826 0.0027382985098430138 0.073255938558701245 0.073183573887351333 0.071754125164507437 0.04821653569210306 0.027319948299682945 -0.04577415918757153 0.078402311978523292 -0.062534982021482999 0.020141235807591945 0.061260551116063766 -0.042307378252280398 0.026906005973911525 -0.059683721707019792 0.027319948299682945 -0.074969835348904251 0.055255987548829759 0.0089180476624442263 0.018733930365451255 -0.042307378252280398 -0.010597966747556659
leaf_weight=501.35774658620358 8535.4861465096474 7640.266385525465 128.64430011808872 2669.1439522355795 3772.5247898995876 3032.2691362947226 38315.752344593406 399.99379205703735 1602.5478878766298 1802.548231408 2568.4867069721222 1044.9591670930386 8041.6064582020044 714.92331576347351 765.53858037292957 3729.571023568511 1184.4697571098804 1619.8134856373072 1539.3164157420397 446.97945974767208 282.0894021242857 1465.0199839621782 243.09542500972748 47551.710189118981 175.1331150084734 3693.8902943283319 182.50088480114937 1650.7368398010731 1375.1166812032461 490.86106052994728 162.22202017903328 148.50678767263889 290.5944581925869 897.27822805941105 11021.840680018067 8321.2694856524467 3598.0106954723597 306.88553197681904 1437.8796799778938 132.12318456172943 423.21189850568771 409.42971317470074 425.19515250623226 3549.7449283897877 1452.877404242754 502.06034001708031 304.12216502428055 1034.6134916692972 481.63705748319626 278.31338883936405 2371.1203284710646 283.34487996995449 781.63320913910866 389.75499407947063 256.19041809439659 1815.956901088357 1405.1784503906965 1841.2764183580875 176.68080213665962 988.89822192490101 959.52721689641476 71.052022516727448 239.51206867396832
leaf_count=2015 34918 30820 528 10740 15516 12314 158102 1639 6531 7253 10321 4259 33139 2885 3088 15320 4767 6610 6330 1819 1131 5949 979 196103 715 15222 745 6713 5552 1982 653 613 1199 3680 45525 34380 14621 1251 5908 543 1728 1652 1704 14475 5929 2042 1228 4174 1959 1132 9661 1137 3172 1580 1030 7369 5663 7566 721 3988 3844 290 987
internal_value=-0.000208175 0.0467287 -0.0565368 -0.0254598 -0.0217701 0.0626321 0.0671145 -0.0443313 0.0150163 -0.0124746 0.054154 -0.0715625 -0.0571507 0.0275947 0.0279786 -0.0412219 0.0645033 -0.0146607 0.0161425 0.0582867 0.0447962 0.0679716 -0.0143142 -0.0766804 -0.0788895 0.068686 0.052455 0.0231402 -0.0602988 -0.0165067 0.0703526 0.0455107 -0.0734254 -0.0312779 0.0721792 0.0643689 0.0731784 0.0529109 -0.0381532 -0.0427789 -0.0481902 -0.00524764 -0.0548203 0.0580695 0.0413412 0.0152223 -0.00429688 0.0540145 -0.022215 -0.0687176 -0.047706 -0.035742 0.0343248 -0.069954 -0.0412707 -0.0497623 0.0290473 -0.0648099 -0.00418395 0.0301112 -0.00920873 0.0673964 -0.0794667
internal_weight=193924 105781 88143.6 28728.4 19931.5 85849.2 81014.3 15549.8 13289.3 4834.82 42698.6 59415.2 13067.2 11261.6 12099.7 8576.97 30598.9 4457.64 2837.83 4381.73 8101.6 29414.4 3598.23 50838.2 47726.8 4459.43 1792.87 2482.58 15439.1 3160.01 3934.75 1799.24 9468.99 1187.87 26544.2 15522.4 12953.9 7386.68 4254.16 3111.37 2982.72 832.642 2027.74 6775.67 3225.93 1773.05 611.008 4632.62 2816.28 11184.9 2649.43 683.339 1282.99 4119.33 2315.24 2059.05 2870.2 2150.08 308.804 1490.96 2334.64 1610.37 8281.12
internal_count=795409 433859 361550 116860 81660 352199 332632 63672 53886 19567 174530 244690 53570 45651 49130 35134 125400 18234 11624 17988 32929 120633 14565 209556 196818 18310 7365 10102 62974 12722 16169 7326 39005 4879 109021 63496 53175 30044 17263 12738 12210 3380 8235 27565 13090 7161 2479 18795 11355 45711 10793 2776 5187 16900 9378 8348 11612 8830 1264 6030 9396 6620 34126
is_linear=0
shrinkage=0.05


Tree=5
num_leaves=64
num_cat=0
split_feature=7 0 7 3 3 13 3 2 37 3 14 20 49 4 39 2 51 6 37 11 20 7 3 49 4 30 2 3 16 22 31 37 37 51 51 51 0 2 0 31 20 30 19 11 9 3 22 30 2 51 4 31 7 0 40 4 2 18 36 38 13 37 37
split_gain=187504 42043.5 15184.9 14746.2 13268.3 10469.3 5864.35 4888.25 4464.86 4389.41 4170.79 3921.94 3365.11 2699.75 2634.04 4047.82 2590 2396.61 2174.52 2054.16 1738.21 1718.89 1667.43 1520.14 2282.16 1507.36 1292.64 1292.45 1264.16 1605.57 1198.95 1123.8 1059.45 1049.63 994.679 956.499 883.558 879.168 1994.87 891.881 858.49 807.389 735.356 711.251 615.511 599.836 594.755 1832.8 565.161 543.969 520.401 516.348 504.03 492.645 489.714 779.114 489.092 629.002 474.311 467.299 458.78 433.07 406.142
threshold=7.5000000000000009 0.097619049251079573 8.5000000000000018 6.4411044120788583 7.5189507007598886 1.0000000180025095e-35 7.3471419811248788 0.47493734955787664 4.5000000000000009 7.1084699630737314 1.5000000000000002 0.97548621892929088 0.75735294818878185 1.5000000000000002 1.5000000000000002 0.23904761672019961 91.500000000000014 3920.0000000000005 36.500000000000007 0.90301498770713817 4.7563803195953378 5.5000000000000009 7.7233202457427987 0.87083333730697643 1.5000000000000002 492288.00000000006 0.29705883562564855 7.7233202457427987 774497.50000000012 953876.00000000012 5376.0000000000009 35.500000000000007 35.500000000000007 278.00000000000006 7574.0000000000009 18453.000000000004 0.080128207802772536 0.29705883562564855 0.23764705657958987 84992.000000000015 5.145820379257203 4284928.0000000009 165632.00000000003 0.11612737551331521 609.50000000000011 7.4468121528625497 848924.00000000012 65792.000000000015 0.54150801897048961 7574.0000000000009 2.5000000000000004 7034624.0000000009 9.5000000000000018 0.29557368159294134 1.0000000180025095e-35 1.5000000000000002 0.31414473056793218 12.500000000000002 12.500000000000002 4.5000000000000009 1.0000000180025095e-35 35.500000000000007 31.500000000000004
decision_type=2 2 2 2 2 2 2 2 2 2 2 2 2 2 2 2 2 2 2 2 2 2 2 2 2 2 2 2 2 2 2 2 2 2 2 2 2 2 2 2 2 2 2 2 2 2 2 2 2 2 2 2 2 2 2 2 2 2 2 2 2 2 2
left_child=1 4 3 32 7 6 8 12 13 53 18 25 21 -3 37 -16 43 23 22 34 -14 49 28 50 31 52 -15 -12 29 -5 48 -25 46 -33 -6 61 -22 39 -39 -13 54 51 -20 -17 59 -18 -2 -48 -9 62 -10 -24 -4 -7 55 60 57 -23 -31 -44 -34 -32 -1
right_child=2 5 11 10 19 9 -8 30 17 -11 27 14 20 26 15 16 45 -19 42 -21 36 56 41 24 -26 -27 -28 -29 -30 58 35 33 40 -35 -36 -37 -38 38 -40 -41 -42 -43 44 -45 -46 -47 47 -49 -50 -51 -52 -53 -54 -55 -56 -57 -58 -59 -60 -61 -62 -63 -64
leaf_value=0.0068464261868830577 -0.072454675647782324 0.026542020126042978 -0.052657903787142524 -0.029378350200054554 0.072775124078036962 -0.056033387281891667 0.078768906465097988 -0.072756929891760663 0.076600248986579494 0.026542020126042978 -0.064256228505331692 -0.076146924263975943 -0.075334334465787675 0.026542020126042978 -0.070862584835545694 -0.058244707891847963 -0.067877930948032114 0.026542020126042978 -0.015419192933803089 -0.046187430692587496 -0.081859043709762075 0.085097567651733722 0.06659427605859812 0.026542020126042978 0.080389736900717754 -0.068503871240173306 0.079087836611173468 0.028227309790615048 -0.062975886835032885 -0.033123311564011618 -0.051733074052093458 0.067101198448150545 -0.027139129394899243 0.026542020126042978 -0.052534193365727469 -0.077722828387241039 0.082167372815971501 -0.063028995300520294 0.068927107507354188 0.030734169399631379 0.0268052896181558 -0.010830020115338465 -0.087437285667336051 0.077418209861719808 -0.073172906261954551 0.040377212095028731 0.075762962745173579 -0.059765926118751735 0.019800088241393433 -0.053454407216453094 0.026542020126042978 -0.08985880676948188 0.076840661951972297 0.024122361025833854 -0.083163470188486355 0.057741597324527751 0.024557438124039883 -0.053668554149511952 0.045609610849401877 0.067287035156592054 -0.068395537955230207 0.061129849044902942 0.068868560639723186
leaf_weight=428.41878128051758 8514.8698104918003 7600.2442612200975 83.645188316702843 1763.4668638110161 3758.8363836854696 2806.6676418334246 37750.088852733374 397.02941003441811 16103.348976001143 1816.8992033749819 1900.1421634405851 49425.906514912844 8950.2094526290894 768.17538748681545 3477.3744751363993 105.31548503041267 706.60756525397301 1186.4540709257126 331.2866852581501 441.34624235332012 116.66560724377632 84.354920536279678 1658.9917916804552 2941.3515956699848 4635.4907967895269 304.41848362982273 3616.7447760552168 470.83113987743855 838.57423555850983 214.84735494852066 89.260313987731934 3782.9699478298426 1767.9503942877054 1390.4652795642614 164.64378271996975 147.60362358391285 271.06424030661583 2044.1371313631535 332.21197417378426 195.46430557966232 472.84545446932316 495.01166246831417 48.643860220909119 1086.3451213389635 81.329468935728073 155.50518022477627 279.37826786935329 2269.8166864514351 281.02268452942371 159.27126361429691 218.26837186515331 53.632805779576302 687.12641875445843 205.19762493669987 675.86945787072182 205.33856073021889 262.46325498819351 1952.6957558691502 1697.2681499570608 3647.6584006845951 1090.3063130378723 1528.8396819233894 687.57133711874485
leaf_count=1722 35269 30729 337 7120 15668 11493 158250 1648 67315 7327 7781 206898 37416 3106 14408 432 2900 4783 1335 1804 486 340 6809 11888 19442 1256 15137 1902 3431 870 360 15591 7136 5622 666 619 1136 8441 1354 791 1908 1994 197 4523 331 624 1148 9332 1129 639 890 215 2850 821 2780 830 1055 7972 6945 14981 4536 6272 2819
internal_value=-0.000297923 0.0448421 -0.0544892 -0.0245364 -0.0209165 0.0601311 0.0644469 -0.0427812 0.0516467 -0.0113628 0.0141668 -0.0690438 -0.0550527 0.026542 -0.0708122 -0.037998 0.0176546 0.0618801 0.0273162 0.0560008 -0.0708443 -0.0137942 0.00979691 0.0653473 0.0524025 0.0255499 0.0657913 -0.0458866 -0.00761929 0.00502386 0.0220571 0.0364071 -0.057982 0.0529188 0.0675046 0.0437535 0.0327292 -0.0743019 -0.0445604 -0.0757253 -0.0366275 0.0453967 0.0559668 0.0653899 0.0622295 -0.0483271 -0.066108 -0.0448888 -0.0344235 0.032747 0.0754559 0.0616452 0.0627373 -0.0505662 -0.0446535 -0.0361333 -0.0396079 -0.0478833 0.0367504 0.0652277 -0.0428952 0.0548758 0.0450863
internal_weight=191626 104544 87082.1 28478.1 19721.3 84822.4 79993.6 15356.5 42243.5 4828.76 13201.7 58604.1 12912.7 11985.2 57528.9 5531.15 2053.77 30258.3 10830.7 4364.83 9337.94 3574.78 6721.79 29071.9 12750.3 1075.19 4384.92 2370.97 4514.16 3675.58 2443.76 8114.79 15276.4 5173.44 3923.48 1765.7 387.73 51997.7 2376.35 49621.4 4212.31 2207.64 4108.92 1191.66 3777.63 862.113 11064.1 2549.19 678.052 1275.26 16321.6 1712.62 770.772 3011.87 3739.46 3063.6 2299.51 2037.05 1912.12 3696.3 2858.26 1618.1 1115.99
internal_count=795809 434145 361664 116850 81751 352394 332753 63613 174503 19641 53911 244814 53585 48972 240371 22887 8479 125531 44228 18138 39038 14547 27384 120748 52543 4443 18243 9683 18366 14935 10028 33101 62939 21213 16334 7251 1622 217484 9795 207689 17190 9018 16844 4955 15509 3524 45749 10480 2777 5180 68205 7024 3187 12314 15282 12502 9367 8312 7815 15178 11672 6632 4541
is_linear=0
shrinkage=0.05


Tree=6
num_leaves=64
num_cat=0
split_feature=7 14 12 7 3 3 17 2 3 12 20 12 19 37 22 30 2 7 39 2 4 11 14 31 32 6 12 49 37 5 13 22 30 3 37 37 51 3 19 7 2 4 31 31 51 39 4 7 51 12 4 20 3 31 17 2 1 30 22 17 40 51 51
split_gain=171271 34131.8 17793.1 14180 13465.6 11431.8 8986.96 8015.19 5706.74 4062.48 3620.19 3385.04 2972.3 2951.84 3006.35 2799.55 2718.8 2991.59 2475.99 3715.99 2459.67 2379.31 2255.58 1677.94 1740.23 1634.67 1385.68 1355.9 1222.99 1217.17 1013.99 1043.15 1029.34 959.015 921.564 902.02 887.423 849.651 839.369 1434.5 778.334 1584.31 834.165 761.79 739.159 695.603 681.206 623.107 621.952 602.293 598.887 594.324 585.788 579.783 579.604 565.29 523.151 519.752 514.742 502.602 492.044 489.233 489.055
threshold=7.5000000000000009 1.5000000000000002 1560.0000000000002 8.5000000000000018 6.4411044120788583 6.4411044120788583 10.500000000000002 0.29705883562564855 7.683387517929078 3994112.0000000005 0.97548621892929088 2744064.0000000005 165632.00000000003 30.500000000000004 1007620.0000000001 256768.00000000003 0.47493734955787664 5.5000000000000009 1.5000000000000002 0.23904761672019961 1.5000000000000002 2.2792942523956303 1.5000000000000002 1105.0000000000002 6144.0000000000009 3920.0000000000005 2015488.0000000002 0.77350428700447094 34.500000000000007 1.5000000000000002 1.0000000180025095e-35 353289.50000000006 73472.000000000015 7.7233202457427987 31.500000000000004 34.500000000000007 91.500000000000014 7.5988781452178964 114944.00000000001 5.5000000000000009 0.29705883562564855 1.5000000000000002 84992.000000000015 5888.0000000000009 5342.0000000000009 1.0000000180025095e-35 1.5000000000000002 5.5000000000000009 1.0000000180025095e-35 896768.00000000012 1.5000000000000002 2.375906348228455 7.1469707489013681 3840.0000000000005 8.5000000000000018 0.13961039483547213 2.3238158226013188 12181.500000000002 7757344.0000000009 5.5000000000000009 1.0000000180025095e-35 7574.0000000000009 91.500000000000014
decision_type=2 2 2 2 2 2 2 2 2 2 2 2 2 2 2 2 2 2 2 2 2 2 2 2 2 2 2 2 2 2 2 2 2 2 2 2 2 2 2 2 2 2 2 2 2 2 2 2 2 2 2 2 2 2 2 2 2 2 2 2 2 2 2
left_child=1 2 27 4 30 6 7 13 46 12 26 38 -6 14 47 58 17 61 40 -20 -13 37 28 24 -9 59 -5 -1 29 36 31 -2 -33 -24 -34 49 -14 -21 39 -7 42 -42 -12 -18 -40 -19 -3 -4 -29 -25 -46 -11 -22 -37 -43 -38 -41 -50 -16 -15 -30 -8 -23
right_child=3 8 5 10 9 11 16 23 -10 51 18 20 22 25 15 -17 43 45 19 21 52 62 33 35 -26 -27 -28 48 60 -31 -32 32 34 -35 -36 53 55 -39 44 56 41 54 -44 -45 50 -47 -48 -49 57 -51 -52 -53 -54 -55 -56 -57 -58 -59 -60 -61 -62 -63 -64
leaf_value=0.063159323222229086 -0.057921951528914717 -0.06942528242732772 0.0073521697141825035 0.057277965643112688 -0.040421826752764407 0.074618930238843709 0.048723530012418664 0.075414490862963951 0.048651105888993157 0.054692116709317923 -0.073657989920839634 -0.021716539635781809 -0.052679931411536977 0.016517116607137419 0.077065901775836387 -0.030162210853531393 -0.015760641593427129 -0.057593282379946244 -0.068270638535080183 -0.06068688221650273 -0.051159141874632247 0.078729013904125456 -0.054031895179867645 0.056973537079160912 -0.069460389635969663 -0.089309463713818385 -0.07585838859585553 -0.080947384580698459 0.06707846555349159 0.058984793130785688 -0.071090322298818953 0.052449303312802203 -0.054601973506239611 0.045366003293677765 -0.0014862656990175366 0.037853046304125837 0.063809382176868823 0.056805818217870667 0.076108956586984855 0.03821208764369563 -0.071077003221276747 0.077887663625197334 0.028544853134514311 0.062617977079873405 -0.012631230455891136 0.059349293204338738 0.003034210168430715 -0.042286992143621166 0.03488634713045833 -0.065863951776700166 0.079332984292070391 -0.058874217604882206 0.066377691979010847 -0.075865549667513132 -0.015490648126591067 0.0045840901826265995 -0.021931393878152142 -0.081513447508236928 -0.0027533757544141056 0.062213764294892317 -0.089494637042660252 -0.050305431814998074 -0.059807357538732508
leaf_weight=196.60174584388733 5050.7602064907551 7365.4322272092104 777.35703691840172 800.99082514643669 1480.5518193393946 2461.8514501005411 1022.1792376339436 15014.587166592479 1256.5407450795174 121.96869620680809 48515.245590090752 1636.9496995806694 526.94883523881435 733.84970785677433 1752.9326173216105 1150.3282793313265 427.90480640530586 4057.8296372443438 3422.6621470153332 805.730707898736 111.29218673706055 975.72811597585678 904.12938795983791 992.55440799891949 209.44635212421417 208.14995035529137 257.4714272916317 2613.5483437478542 3921.8318014889956 1760.2242794036865 6235.0759853422642 385.52501724660397 2068.7567391991615 330.70070326328278 1348.870569601655 170.53940664231777 541.22971579432487 189.29967975616455 47207.727949216962 835.17091695964336 1626.7945029139519 257.62365551292896 199.99119955301285 1120.9399813711643 428.48386541008949 130.50104488432407 339.21507622301579 3378.3188446313143 230.12480643391609 110.09458266198635 300.38977983593941 1877.0555086582899 1979.8078340142965 323.24109108746052 464.20073683559895 1568.6500842273235 636.15013128519058 162.9586593657732 228.19386692345142 3363.4767366945744 50.005029946565628 141.20890612900257 67.439065188169479
leaf_count=821 20977 30930 3146 3358 6001 10440 4196 63852 5117 493 206653 6699 2126 3021 7287 4661 1756 16998 14386 3343 450 4145 3720 4103 845 834 1077 11008 16279 7304 26347 1589 8560 1344 5431 692 2234 760 200902 3440 6823 1063 811 4653 1768 537 1374 13610 945 444 1280 7758 8397 1303 1907 6359 2612 658 932 13932 204 569 275
internal_value=-0.000316667 0.0431168 0.0519951 -0.0525225 -0.0234535 0.0560761 0.0338274 0.0462576 -0.0501221 0.0136692 -0.0667437 0.0702067 0.0255019 0.0142671 -0.00512722 0.0318634 -0.0173532 -0.0342364 -0.0684593 -0.0364491 0.0241794 0.0169948 0.0356682 0.0683032 0.0734169 0.0470861 0.0248515 -0.06381 0.0449756 0.0268 -0.0556404 -0.0447536 -0.024906 -0.0273969 -0.0336448 0.0195212 0.00530074 -0.0382999 0.0735143 0.0512823 -0.0718818 -0.0437354 -0.0732378 0.0409678 0.0753374 -0.0539363 -0.0662351 -0.033002 -0.0721307 0.0446602 0.0253266 -0.0519212 0.0601007 -0.0365929 0.0178983 0.0197997 0.0122108 -0.0134533 0.0678753 0.0540353 0.0650852 0.0366708 0.0697242
internal_weight=188831 103076 94114.7 85755.5 28172.3 90911.5 35313.6 28413.1 8961.19 13083.3 57583.2 55597.8 11084.3 11592.6 7287.13 3131.45 6900.56 5351.72 56524.7 5460.86 3728.05 2038.2 9603.72 16820.5 15224 4305.48 1058.46 3203.23 8368.89 4397.05 15089 8853.91 3803.15 1234.83 3417.63 1596.43 2636.83 995.03 51869.8 3933.17 51063.9 2348.62 48715.2 1548.84 47936.6 4188.33 7704.65 4155.68 3006.63 1102.65 728.874 1999.02 2091.1 493.78 721.824 2109.88 1471.32 393.083 1981.13 4097.33 3971.84 1163.39 1043.17
internal_count=795539 434212 396791 361327 116726 383359 147371 118662 37421 53822 244601 235988 45571 47423 29636 12880 28709 22300 240166 22909 15546 8523 39570 71239 64697 17787 4435 13432 34506 18023 62904 36557 15580 5064 13991 6542 10719 4103 220442 16492 217257 9793 207464 6409 203950 17535 32304 16756 12611 4547 3048 8251 8847 1995 2970 8593 6052 1603 8219 16953 16483 4765 4420
is_linear=0
shrinkage=0.05


Tree=7
num_leaves=64
num_cat=0
split_feature=7 0 7 3 3 13 3 2 37 12 3 20 49 22 39 2 0 51 6 36 12 2 20 7 12 12 37 5 31 13 37 51 51 22 37 49 12 2 0 31 40 11 22 30 3 30 51 51 2 3 40 37 2 38 0 7 3 0 50 20 11 37 49
split_gain=157061 35373.1 13343.5 12438.7 11260.2 8769.5 5465.51 4182.28 4020.75 3705.35 3654.81 3343.13 2928.34 2703.89 2255.37 3305.29 2209.28 2153.26 2125.5 2005.27 1807.04 1728.87 1510.04 1387.82 1263.29 1255.12 1127.95 1263.86 1000.86 964.281 975.689 838.636 829.925 822.757 2020.09 955.598 750.804 745.691 1643.43 787.738 664.623 629.348 596.543 1195.12 585.654 582.7 741.311 527.967 509.413 508.399 492.456 477.681 473.808 581.417 447.465 442.277 434.144 429.338 424.234 421.818 394.484 389.717 389.27
threshold=7.5000000000000009 0.093073595315217986 8.5000000000000018 6.4411044120788583 7.5549771785736093 1.0000000180025095e-35 7.3471419811248788 0.47493734955787664 4.5000000000000009 3994112.0000000005 7.683387517929078 0.97548621892929088 0.75735294818878185 318704.00000000006 1.5000000000000002 0.23904761672019961 0.38799282908439642 91.500000000000014 1800.0000000000002 12.500000000000002 278784.00000000006 1.0000000180025095e-35 4.7563803195953378 5.5000000000000009 2015488.0000000002 2853632.0000000005 34.500000000000007 1.5000000000000002 5376.0000000000009 1.0000000180025095e-35 36.500000000000007 18453.000000000004 91.500000000000014 1007620.0000000001 32.500000000000007 0.85164836049079906 3136.0000000000005 0.29705883562564855 0.23764705657958987 84992.000000000015 1.0000000180025095e-35 0.11612737551331521 848924.00000000012 206080.00000000003 7.7305815219879159 113408.00000000001 356.00000000000006 282.00000000000006 0.54150801897048961 7.4468121528625497 1.0000000180025095e-35 31.500000000000004 0.31414473056793218 4.5000000000000009 0.15192308276891711 9.5000000000000018 6.8457884788513192 0.29557368159294134 1.0000000180025095e-35 2.7397061586380009 5.790046453475953 35.500000000000007 0.69615384936332714
decision_type=2 2 2 2 2 2 2 2 2 2 2 2 2 2 2 2 2 2 2 2 2 2 2 2 2 2 2 2 2 2 2 2 2 2 2 2 2 2 2 2 2 2 2 2 2 2 2 2 2 2 2 2 2 2 2 2 2 2 2 2 2 2 2
left_child=1 4 3 29 7 6 8 12 16 13 57 24 23 -5 37 -16 -3 41 20 56 33 -6 -14 51 55 -23 27 32 48 30 42 61 -21 34 -10 -36 -24 39 -39 60 54 -17 -2 -44 -11 -34 62 -37 -9 -19 -28 -1 53 -25 -32 -4 -15 -7 -56 -22 -13 -30 -47
right_child=2 5 11 9 21 10 -8 28 18 44 -12 14 22 19 15 17 -18 49 -20 26 59 25 36 52 -26 -27 50 -29 31 -31 40 -33 45 -35 35 47 -38 38 -40 -41 -42 -43 43 -45 -46 46 -48 -49 -50 -51 -52 -53 -54 -55 58 -57 -58 -59 -60 -61 -62 -63 -64
leaf_value=-0.0082352962845125104 -0.055784636283296718 0.024851484135988103 -0.040137962987144123 -0.035097367957559335 -0.076339588111292433 -0.050204904052565197 0.074066131379903796 -0.068970387501605085 0.024851484135988103 -0.063610850673629829 0.024851484135988103 -0.071470101938600747 -0.070748514778448943 -0.065985855066745966 -0.065607345060284372 -0.05654015127988915 0.07285261572946522 -0.062945099253111134 0.024851484135988103 -0.046844368974433066 0.072099685672457045 0.070901830898918425 -0.077521378452661882 -0.054442624364520888 -0.072245171050857496 -0.017181267441055786 0.063690446889086136 0.058404857032744555 -0.048978038234909801 -0.068699631853177318 -0.038775336512113762 -0.075012452122272588 0.072341291231218338 0.075825295736310652 0.076481979352297891 0.057216912556586598 0.077501363772030388 -0.058758705801981198 0.062984984573670438 0.028712904277287444 -0.055784636283296718 0.072268439428063311 0.04940149732157436 -0.049643664450192693 0.0029120550494371382 0.064278875792098747 0.045182928983469303 0.024851484135988103 0.019383736640657928 0.036750923503265691 -0.081455331228114547 0.054894700799343145 0.027620346142316857 0.025745962714078443 -0.0095864108853746539 0.069849848179066684 0.0067631762552055712 0.015994873013791624 0.046581213891334655 0.024851484135988103 0.097406598878009898 0.056926094903628634 -0.031964830898963681
leaf_weight=499.18811360001564 4655.4692884087563 9422.507316172123 104.79018826782703 1613.7692804038525 243.37854996323586 2840.2901809811592 36348.133052960038 384.15636239945889 2548.7751937657595 1563.4511212259531 1616.5119282305241 47568.087827041745 8656.0026530623436 526.69173331558704 3372.2805522382259 103.63613301515579 2417.9338642060757 693.05171637237072 1179.9127156883478 618.36293882131577 477.22963932156563 3502.3357769548893 109.86238944530487 1758.0291859656572 256.82444001734257 456.81588263809681 3958.2417720556259 1751.826936095953 91.438105195760727 6155.1159243136644 649.68961708247662 143.43378882110119 410.50979281961918 10420.746717050672 7892.8521097153425 3476.2851108908653 263.81101858615875 1991.7548326402903 321.15323743224144 197.01693305373192 389.50852160155773 1036.4607121050358 403.5945753455162 1231.9950579404831 419.48473638296127 117.74869540333748 718.26351444423199 1018.8443368524313 282.39626355469227 156.05838145315647 58.499142840504646 747.73438833653927 258.89262172579765 258.78052727878094 909.01611799001694 684.77329099178314 335.16087111830711 267.56604507565498 532.23242461681366 2339.2599843293428 33.784337118268013 1506.9944235533476 914.1247336268425
leaf_count=2011 19650 38753 424 6558 1034 11846 158317 1634 10335 6576 6581 206597 37428 2165 14402 434 10408 2914 4780 2513 1993 15114 475 7323 1093 1855 16656 7360 369 26470 2632 616 1692 45453 34452 14580 1150 8436 1336 801 1631 4465 1681 5121 1686 494 2950 4160 1136 629 239 3116 1041 1047 3697 2921 1355 1073 2150 9629 141 6299 3713
internal_value=-0.000284451 0.0416533 -0.0506529 -0.0223809 -0.0195247 0.0559042 0.0599336 -0.0398381 0.0474621 0.0133631 -0.0102306 -0.0646247 -0.0514174 0.0246827 -0.0662949 -0.0354626 0.0248515 0.0156488 0.0574076 0.034938 0.0608085 0.0527821 -0.0665001 -0.0127474 0.023896 0.0607368 0.0422676 0.0251573 0.0205076 -0.0535247 -0.0428696 0.0404405 0.00418529 0.0650346 0.0575018 0.0659981 0.0318384 -0.0695929 -0.0418344 -0.0709352 -0.0163036 0.0605203 -0.0533399 -0.0251882 -0.0495437 0.0188046 0.00621291 0.0475769 -0.0315647 -0.0446002 0.0615568 0.0296351 -0.0359729 -0.0441458 -0.00435763 0.0552201 -0.0377199 -0.0445022 0.0111734 0.0248515 -0.0713482 0.050841 -0.0209307
internal_weight=185883 101430 84452.4 27932.8 19163.3 82266.8 77542.5 14960.7 41194.3 13006.1 4724.37 56519.7 12552.3 11023.2 55473.3 5361.49 11840.4 1989.21 29353.9 9409.43 28174 4202.53 9029.68 3522.62 1046.39 3959.15 8547.58 4530.84 2408.42 14926.6 8771.51 1741.87 2779.01 25357.5 14936.8 12388 373.673 50111.8 2312.91 47798.9 2480.45 1140.1 6291.06 1635.59 1982.94 2160.65 1750.14 4495.13 666.553 849.11 4016.74 1246.92 2275.7 2016.81 2090.94 789.563 861.853 3107.86 1441.25 2816.49 47601.9 1598.43 1031.87
internal_count=795590 434008 361582 116989 81648 352360 332860 63645 174543 53957 19500 244593 53591 45695 240155 22844 49161 8442 125382 39137 120602 18003 39053 14538 4438 16969 35617 18722 10054 63032 36562 7284 11362 108980 63527 53192 1625 217311 9772 207539 10110 4899 26452 6802 8262 8849 7157 18740 2770 3543 16895 5127 9411 8370 8479 3345 3520 12919 5847 11622 206738 6668 4207
is_linear=0
shrinkage=0.05


Tree=8
num_leaves=64
num_cat=0
split_feature=13 2 3 12 3 0 22 3 2 12 3 2 3 51 30 37 2 31 0 10 36 3 42 37 0 2 9 37 37 39 0 37 2 51 19 42 1 11 0 40 51 17 3 0 51 14 2 12 0 51 31 14 40 20 2 20 22 12 2 37 0 51 11
split_gain=93145.1 35754.9 26749.1 10564.5 9986.05 9618.12 7788.29 3366.41 3330.33 3247.07 2908.19 2786.45 2296.76 2102.37 1892.23 1460.85 1251.84 1221.87 1169.44 3879.82 1479.44 848.366 824.122 792.956 783.209 756.429 717.766 659.205 887.321 603.251 592.475 588.035 557.726 551.19 529.393 516.727 494.079 493.904 482.98 476.811 407.662 395.635 390.952 328.726 328.495 315.469 300.114 296.801 335.366 295.212 348.873 290.755 281.69 279.567 277.867 266.925 253.706 277.909 251.741 235.491 228.289 213.084 210.733
threshold=1.0000000180025095e-35 0.29099461436271673 6.4766626358032235 2015488.0000000002 7.5549719333648691 0.097619049251079573 4678120.0000000009 7.5549771785736093 0.18350168317556384 2337536.0000000005 7.9340605735778817 0.17156863212585452 7.683387517929078 1.0000000180025095e-35 3031296.0000000005 36.500000000000007 0.47493734955787664 303360.00000000006 0.17156863212585452 2.5000000000000004 6.5000000000000009 7.7890563011169442 1.0000000180025095e-35 36.500000000000007 0.29557368159294134 0.18898809701204303 158.50000000000003 23.500000000000004 19.500000000000004 1.5000000000000002 0.31801471114158636 34.500000000000007 0.42481203377246862 18453.000000000004 1353984.0000000002 1.5000000000000002 2.1729470491409306 1.0000000180025095e-35 0.12249999865889551 1.0000000180025095e-35 7410.0000000000009 15.500000000000002 6.3867461681365976 0.26969698071479803 136.50000000000003 5.5000000000000009 0.55718955397605907 158464.00000000003 0.19375000149011615 930.00000000000011 5179392.0000000009 16391.000000000004 5.5000000000000009 3.454697966575623 0.26568628847599035 3.4374868869781499 111425.00000000001 364800.00000000006 0.54150801897048961 39.500000000000007 0.19375000149011615 91.500000000000014 1.856799364089966
decision_type=2 2 2 2 2 2 2 2 2 2 2 2 2 2 2 2 2 2 2 2 2 2 2 2 2 2 2 2 2 2 2 2 2 2 2 2 2 2 2 2 2 2 2 2 2 2 2 2 2 2 2 2 2 2 2 2 2 2 2 2 2 2 2
left_child=1 2 -1 6 17 7 8 16 10 13 15 37 -11 -7 -8 27 41 30 19 20 31 26 -12 25 -5 44 38 28 43 55 42 46 -33 34 58 -19 -26 -6 -10 47 -9 -3 -2 52 -16 60 -15 48 61 -14 -51 -47 -4 -36 -32 -29 -40 -58 -18 -60 -44 -17 -31
right_child=4 5 3 24 11 9 14 40 21 12 22 -13 49 18 23 39 33 35 -20 -21 -22 -23 -24 -25 36 -27 -28 29 -30 62 54 32 -34 -35 53 -37 -38 -39 56 -41 -42 -43 45 -45 -46 51 -48 -49 -50 50 -52 -53 -54 -55 -56 -57 57 -59 59 -61 -62 -63 -64
leaf_value=-0.017066575595383399 -0.071443093762824109 -0.017066575595383399 -0.0133291989520206 -0.017066575595383399 -0.017066575595383399 -0.017066575595383399 0.073766436427439089 0.073282647108682944 -0.017066575595383399 -0.017066575595383399 -0.017066575595383399 -0.017066575595383399 0.066802956266919136 0.074803140484910005 -0.017066575595383399 0.039707336714287021 -0.017066575595383399 -0.017066575595383399 0.074431796975997763 -0.017066575595383399 -0.017066575595383399 0.071700521794212269 0.060035004486676785 0.065181094443980306 -0.016373097073574819 0.060998257033118744 -0.017066575595383399 0.046523099295157404 0.069275500950377794 0.065745397990329427 -0.071464415276977153 -0.017066575595383399 0.058776642603829622 -0.017066575595383399 0.06935377270031233 -0.070568905020963052 0.067906723782815204 -0.068129005510572216 -0.015636470673179692 -0.017066575595383399 -0.017066575595383399 0.031762066814633928 -0.057039659209270489 0.047107794173776703 0.025054373956403826 -0.068851659897789283 -0.017066575595383399 0.058989990112836427 0.07136184113510903 0.056792502969458092 -0.017066575595383399 -0.017066575595383399 0.052654476602414547 -0.002223137982226819 -0.017066575595383399 -0.017066575595383399 0.063429540859491998 0.012916867429429938 0.053055994608253998 -0.017066575595383399 -0.030381718896580125 -0.017066575595383399 -0.017066575595383399
leaf_weight=38655.184321448207 27515.166875079274 2840.2093895971775 1319.9512849152088 5064.0705620646477 151.74961584806442 392.44712156057358 14015.474559172988 1501.5493883341551 257.01928037405014 1389.256880775094 3149.1837835460901 4253.8331487774849 1304.7265546172857 7879.3513834923506 717.11859454214573 263.51037056744099 331.57772447168827 509.12926758825779 29451.306329622865 1213.5488433390856 357.00553841888905 2676.6850341707468 549.35056887567043 865.68476565182209 239.19276539981365 451.32080098986626 501.12816771864891 168.14258313179016 757.33036509156227 311.62088680267334 243.72263994812965 157.65745717287064 355.70705994963646 184.03672723472118 825.96707163751125 466.2961650788784 632.74010394513607 3678.4112772196531 132.17273719608784 108.84504349529743 103.45357964932919 937.01784084737301 5813.0319651812315 373.36537784337997 464.82761825621128 8790.5048509389162 59.893817961215973 2543.1723572164774 277.18859352171421 240.67017479240894 144.25221176445484 116.62090602517128 183.32497441768646 163.29780177772045 196.1097209751606 2362.260756239295 1775.687063857913 322.27823168039322 315.61984239518642 172.94528479874134 936.21321693062782 366.504593744874 48.110849469900131
leaf_count=164972 121129 12330 5560 21829 639 1611 62294 6632 1106 5735 13885 17967 5721 34977 3105 1121 1396 2137 130731 5033 1494 11852 2385 3804 1029 1958 2148 699 3248 1380 1041 644 1468 784 3499 1994 2758 16265 552 460 424 3859 25439 1574 2005 38498 247 11051 1207 1050 617 516 766 684 791 10029 7642 1378 1314 705 4040 1543 203
internal_value=-0.000397318 0.0223479 0.00148232 0.0309372 -0.056481 0.0553332 0.0416789 0.0025857 0.0193483 0.064392 0.00520361 -0.0170666 0.0149139 0.0682127 0.0666198 0.0216406 -0.0152309 -0.066006 0.0694088 0.0546438 0.0663097 0.0512565 -0.0170666 0.0265239 -0.0170666 0.00600695 0.0329263 0.00554294 0.0236312 -0.0109446 -0.0672531 0.0705846 0.0186794 0.0226708 0.0329422 -0.0170666 0.0447944 -0.0637755 0.0439577 0.0466165 0.0666136 -0.0170666 -0.0678471 0.00518408 -0.015025 -0.0615232 0.0739381 0.0502305 0.0256371 0.0554566 0.0169239 -0.067712 -0.00525282 0.0575483 -0.0170666 -0.0170666 0.0514481 0.0556799 0.00322826 0.0273966 -0.0533469 0.00543827 0.0498807
internal_weight=182545 129874 79552.4 40897.3 52670.8 50321.5 34961.3 7375.67 18446.8 42945.8 12781.9 8083.99 3078.91 39866.9 16514.4 9083.33 5770.67 44586.8 39474.5 10023.2 8809.62 5664.97 3698.53 2498.95 5936 1633.27 2988.29 5524.11 2633.97 2890.14 43611.4 8452.61 513.365 1993.44 1809.41 975.425 871.933 3830.16 2487.16 3559.22 1605 3777.23 43171.5 1876.64 1181.95 15656.4 7939.25 3450.38 907.204 1689.65 384.922 8907.13 1503.28 989.265 439.832 2530.4 2230.14 2097.97 820.143 488.565 6749.25 630.015 359.732
internal_count=794954 564498 343543 178571 230456 220955 152955 31627 79789 189328 55111 34871 13123 176205 73166 38841 24571 195585 174594 43863 38830 24678 16270 10872 25616 7068 12826 23459 11148 12311 191454 37336 2112 8382 7598 4131 3787 16904 10678 15382 7056 16189 189622 7900 5110 68493 35224 14922 3871 7388 1667 39014 6326 4183 1832 10728 9572 9020 3415 2019 29479 2664 1583
is_linear=0
shrinkage=0.05


Tree=9
num_leaves=64
num_cat=0
split_feature=7 0 7 3 3 22 37 12 3 6 2 7 12 20 49 22 3 39 2 51 7 11 36 32 37 20 22 49 7 30 15 13 31 37 51 51 51 31 2 51 51 2 0 31 12 31 20 12 9 7 37 5 12 22 30 11 40 3 30 7 14 9 2
split_gain=135487 30414 11769 10782 9818.43 7585.1 8483.92 4240.51 5352.39 3761.24 3588.17 3496.72 3181.59 3041.16 2669.9 2345.19 2151.84 2053.28 2981.61 1884.85 1646.71 1574.62 1511.99 1452.78 1362.52 1327.8 1314.73 1254.74 1208.39 1137.08 931.47 914.623 907.547 863.228 830.034 814.211 811.911 749.533 744.759 734.377 720.73 709.892 1516.05 701.414 683.348 669.084 649.293 615.257 568.82 568.784 568.065 852.694 696.466 554.548 1405.13 547.695 546.782 512.938 505.035 495.205 492.344 536.838 454.163
threshold=7.5000000000000009 0.093073595315217986 8.5000000000000018 6.4364173412323007 7.5189507007598886 586232.00000000012 30.500000000000004 540928.00000000012 7.6673283576965341 3920.0000000000005 0.47493734955787664 5.5000000000000009 3994112.0000000005 1.0451779961586001 0.75735294818878185 658225.50000000012 6.4124670028686532 1.5000000000000002 0.23904761672019961 91.500000000000014 4.5000000000000009 0.90301498770713817 12.500000000000002 1.0000000180025095e-35 31.500000000000004 4.7563803195953378 26397792.000000004 0.85164836049079906 5.5000000000000009 492288.00000000006 2.0000000000000004 1.0000000180025095e-35 5376.0000000000009 36.500000000000007 262.00000000000006 7574.0000000000009 538.00000000000011 65280.000000000007 0.44097222387790685 18453.000000000004 2270.0000000000005 0.29705883562564855 0.19375000149011615 84992.000000000015 3136.0000000000005 4352.0000000000009 5.145820379257203 12544.000000000002 350.50000000000006 10.500000000000002 34.500000000000007 1.5000000000000002 80576.000000000015 668172.00000000012 110336.00000000001 0.11612737551331521 1.0000000180025095e-35 7.3611598014831552 116992.00000000001 9.5000000000000018 3.5000000000000004 79.500000000000014 0.13961039483547213
decision_type=2 2 2 2 2 2 2 2 2 2 2 2 2 2 2 2 2 2 2 2 2 2 2 2 2 2 2 2 2 2 2 2 2 2 2 2 2 2 2 2 2 2 2 2 2 2 2 2 2 2 2 2 2 2 2 2 2 2 2 2 2 2 2
left_child=1 4 3 33 10 6 11 30 20 27 14 23 15 29 28 34 37 41 -19 55 26 35 -17 -3 58 -16 -9 -8 -1 59 -7 40 -12 53 -5 -6 -36 -13 -11 -34 -29 43 -43 -15 -27 -26 -35 -18 -32 -44 51 52 -24 -2 -55 -20 62 -14 -22 -4 61 -25 -54
right_child=2 5 13 12 21 7 9 8 -10 38 32 16 57 17 25 22 47 18 19 -21 24 -23 50 60 45 44 -28 31 -30 -31 48 -33 39 46 36 -37 -38 -39 -40 -41 -42 42 49 -45 -46 -47 -48 -49 -50 -51 -52 -53 56 54 -56 -57 -58 -59 -60 -61 -62 -63 -64
leaf_value=0.028014020703185191 -0.064858636237090303 -0.073820086271369309 -0.051309328821528569 -0.030217816786210879 0.065391596198297208 -0.10803105295393944 0.071309943377865989 0.057170758309288132 0.066117295548121693 -0.08511169668780412 -0.031202754805424532 -0.050788898392013629 -0.062827934160950324 -0.068026760106829925 -0.067380216005627561 -0.032169493829260723 -0.050355680676134273 -0.06245277017384461 -0.051004318056406074 -0.041450578119378106 0.036124920101207894 -0.041051398055747201 -0.063682167373824983 0.056968591774144241 0.041729983607962907 -0.074784230599292623 -0.081414801933493819 0.050820350033268437 -0.033554533339258369 -0.060109801177176916 0.071007179738972082 -0.052390656419118914 0.047974777441582656 -0.037323827984253384 0.050951260686346193 -0.049495310703811579 -0.062566263948754405 0.080750791869158539 0.054321493924225486 -0.071400935137322138 -0.0037626296817218686 -0.064439181186683264 0.048067844583100705 0.027039527938507241 0.075313999035272597 -0.047986478142008654 0.029966933968766242 0.023745037277269572 -0.0087610968443492896 -0.07638705544112484 0.059135095288314322 0.058231642876886237 0.069130638796522217 0.056695745208934445 -0.051975150579966017 0.069146048108540623 -0.08441254949229425 -0.0057719123348811321 -0.046295000253855217 0.070234521058424079 -0.049921677979972073 -0.014455459970509217 0.012351406000383867
leaf_weight=1243.3891874700785 7941.0814679712057 276.97617129981518 95.137812480330467 2253.4363135248423 3521.8740469068289 72.269190728664398 8527.0901522189379 1488.9983874559402 6992.4326312988997 559.88061064481735 652.85382021963596 4287.9599979072809 1407.0474803596735 45879.539269611239 8366.5680567473173 715.27961178123951 327.5675707757473 3263.742270052433 103.88406954705715 828.55133391916752 201.45177049934864 426.37469871342182 277.01353068649769 2626.9832869172096 1028.0033482760191 107.16524977982044 192.45470876991749 4518.0804349333048 2215.6580100059509 298.06823958456516 42448.048662021756 253.38840979337692 1558.1519450247288 3207.9633150994778 718.78330782055855 160.5804658383131 200.72879992425442 110.23958604037762 114.76898108422756 139.55853664875031 412.59770958125591 1636.0157425999641 526.68507446348667 194.36101344227791 253.10449054837227 259.51448057591915 402.8168823570013 1900.3541737347841 224.46218101680279 110.20604667067528 3324.9514992386103 1615.2460597604513 485.09671434760094 336.60432060062885 2509.7679096311331 1016.2369065731764 114.31239685416222 547.22122058272362 2302.4998738020658 664.77371211349964 128.42055293917656 291.9517018944025 1280.6470421999693
leaf_count=5153 34847 1113 389 9237 15608 293 38886 6166 31382 2283 2770 17519 6075 206576 37476 2964 1335 14380 445 3534 843 1802 1133 11119 4261 477 775 19120 9307 1288 192606 1081 6637 13598 2968 654 831 461 507 620 1690 7167 2203 792 1132 1057 1639 7896 966 460 14445 6963 2078 1426 10802 4521 467 2229 9499 2878 542 1197 5241
internal_value=-0.000538205 0.0390763 -0.0480009 -0.0212184 -0.0184 0.0525486 0.0292914 0.0627995 0.0371346 0.0538426 -0.03769 -0.0062051 0.0119042 -0.0614059 -0.0485997 0.0223619 -0.0271983 -0.0630641 -0.0332391 0.0156965 9.98202e-05 0.0498377 0.0370831 0.0356345 -0.0181644 -0.063333 0.0412697 0.0595145 -0.0114214 0.0225222 0.0702829 0.0401025 0.0188649 -0.0509846 -0.0138854 0.0603697 0.0261294 -0.0474743 -0.0613465 0.0381254 0.0448654 -0.0662789 -0.0389717 -0.0676251 0.0305826 0.0236234 -0.0298107 0.0128324 0.0705874 0.0264465 0.0440661 0.0307721 0.0101924 -0.0580685 -0.0391086 0.0579673 0.0211054 -0.0468626 -0.0396523 0.0549703 0.0456039 0.0498223 0.0279805
internal_weight=180147 98191.7 81955.2 27338 18645.3 79546.4 24336.3 55210.1 12465.4 14385.8 14536.4 9950.45 12939.8 54617.2 12185.9 10985.5 6626.12 53559.2 5212.41 1948.67 5472.92 4108.83 7812.55 3324.33 3791.47 8726.84 1681.45 13711.2 3459.05 1057.98 42744.8 5184.07 2350.56 14398.2 3172.95 3682.45 919.512 4398.2 674.65 1697.71 4930.68 48346.8 2272.91 46073.9 360.27 1287.52 3610.78 2227.92 42672.5 636.891 7097.27 3772.32 2157.07 10787.5 2846.37 1120.12 1880.06 1954.27 2503.95 759.912 3047.36 2918.93 1765.74
internal_count=795809 434233 361576 116943 81636 352597 104749 247848 53983 63567 63572 41182 54631 244633 53545 46327 27211 240078 22880 8500 22601 18064 33291 13971 15660 39085 6941 60777 14460 4555 193865 21891 10027 62312 13036 16262 3799 17980 2790 7257 20810 217198 9830 207368 1609 5318 15237 9231 193572 2663 30327 15882 8919 47075 12228 4966 7786 8304 10342 3267 12858 12316 7319
is_linear=0
shrinkage=0.05


Tree=10
num_leaves=64
num_cat=0
split_feature=7 0 7 3 3 3 13 37 4 2 12 20 6 17 19 39 2 36 11 12 20 20 36 7 2 12 30 37 2 37 31 17 2 31 3 2 19 7 2 0 51 12 20 31 12 19 51 5 37 51 10 7 5 11 51 3 9 40 4 2 12 20 4
split_gain=124640 28082 11146.8 9914.5 8964.36 7267.35 7493.89 3574.41 3399.53 3355.91 2929.77 2865.76 2652.39 2272.01 2188.35 1924.75 2748.04 1768.29 1729.17 1564.84 1489.38 1327.19 1314.88 1300.27 1266.1 1062.61 1018.37 977.873 935.585 863.969 823.014 743.851 932.349 787.079 724.784 692.437 685.589 1183.63 683.726 1389.71 680.01 677.917 671.128 661.906 651.935 644.425 777.971 527.896 1291.2 516.159 513.986 510.554 500.216 491.853 459.564 457.549 445.894 445.051 645.12 436.866 435.294 434.177 405.525
threshold=7.5000000000000009 0.093073595315217986 8.5000000000000018 6.4411044120788583 7.5549771785736093 7.2914326190948495 1.0000000180025095e-35 4.5000000000000009 1.5000000000000002 0.47493734955787664 4346368.0000000009 0.97548621892929088 1800.0000000000002 14.500000000000002 165632.00000000003 1.5000000000000002 0.23904761672019961 12.500000000000002 2.2792942523956303 989440.00000000012 3.3840112686157231 4.7563803195953378 7.5000000000000009 5.5000000000000009 0.29705883562564855 2015488.0000000002 492288.00000000006 36.500000000000007 0.26201373338699346 35.500000000000007 5376.0000000000009 5.5000000000000009 0.23904761672019961 1105.0000000000002 7.8478386402130136 0.057189542800188072 103168.00000000001 5.5000000000000009 0.29705883562564855 0.19375000149011615 19471.000000000004 2853632.0000000005 5.1197268962860116 84992.000000000015 1.0000000180025095e-35 171776.00000000003 356.00000000000006 1.5000000000000002 31.500000000000004 7410.0000000000009 2.5000000000000004 10.500000000000002 5.5000000000000009 0.011345350649207832 7930.0000000000009 6.4411044120788583 669.50000000000011 1.0000000180025095e-35 1.5000000000000002 0.54150801897048961 1019136.0000000001 2.0208010673522954 1.5000000000000002
decision_type=2 2 2 2 2 2 2 2 2 2 2 2 2 2 2 2 2 2 2 2 2 2 2 2 2 2 2 2 2 2 2 2 2 2 2 2 2 2 2 2 2 2 2 2 2 2 2 2 2 2 2 2 2 2 2 2 2 2 2 2 2 2 2
left_child=1 4 3 29 9 6 7 8 22 13 14 25 19 21 -5 38 -17 -16 34 31 -6 -1 26 49 -10 -4 -3 28 45 -2 59 32 -9 47 -18 -22 37 -7 43 -40 -32 -37 57 -13 -23 -19 53 48 55 -15 -35 -41 -25 -47 -54 -33 -38 58 -31 -11 -48 -12 -8
right_child=2 5 11 10 20 36 62 12 24 30 61 15 -14 23 17 16 18 27 -20 -21 35 44 -24 52 -26 -27 -28 -29 -30 42 40 33 -34 50 -36 41 56 -39 39 51 -42 -43 -44 -45 -46 46 60 -49 -50 -51 -52 -53 54 -55 -56 -57 -58 -59 -60 -61 -62 -63 -64
leaf_value=-0.064306965628063678 -0.056500989073745567 0.061271384839529236 0.052678751728593903 -0.035478872265471473 0.070478737975400413 0.070393457679302329 -0.04757328281024898 0.0010605292388772088 0.0010605292388772088 -0.064039699110844783 0.050856510719946083 -0.066219202446972422 0.0010605292388772088 0.046857273052060638 -0.037182406498549259 -0.060485123422403968 -0.053117155991684789 0.066834599584247825 0.0626271472007498 0.0013969873955503903 -0.072914605612070291 -0.071433035111661436 0.0010605292388772088 -0.048489510389673258 0.069520487653077404 -0.067519273223087636 0.0010605292388772088 0.058092706449171784 0.064872963521194218 -0.035054526033128815 0.046336175710073223 0.0010605292388772088 0.069604153498697793 0.047840388882563457 0.059235168341282729 0.050595517986051011 0.069243395618943118 -0.022965295425721611 -0.06223498732341598 0.045483819861494773 -0.072295567689726073 -0.029657064987160239 0.025156619341655119 0.026267386882631673 0.074441476349464908 0.034940323033319537 0.061076546092778572 0.070001912345516518 0.063444728483837379 -0.050548528765031936 0.0010605292388772088 -0.073502195831652947 0.035025646109093665 -0.021399512500759013 -0.061348948684781628 0.045323352254906621 -0.021437038730309686 -0.074961940011114309 0.056761746290123039 0.017962899312123231 -0.00985958602529881 -0.053057634773364608 0.0010605292388772088
leaf_weight=8375.7416100651026 10261.767706185579 1615.4729242771864 765.08551745116711 1444.5231900364161 2623.1862181276083 854.68847186863422 2555.287572324276 1159.5149715691805 726.48902998864651 376.01243132352829 106.05739316344261 44829.266135513783 1154.1435893774033 944.23824965953827 871.94971665740013 3203.6112524718046 777.79641279578209 478.05839835107327 958.85465803742409 1260.8573553711176 229.10943315923214 106.86101073026657 5420.2456810027361 1575.8753535151482 3288.7598360776901 241.01249501109123 427.59194526076317 3447.3687815517187 1079.2230730056763 2717.8901105523109 1549.274973616004 1005.6334949433804 827.36953741312027 977.99602358043194 175.10444402694702 740.19827249646187 34325.747303649783 562.15188176929951 1604.2880764305592 526.17176479101181 130.11892537772655 407.18110522627831 497.16388708353043 193.80371662974358 263.78811188042164 480.52115513384342 756.69090238213539 12617.104106843472 7437.0018718987703 158.01750354468822 476.24764128029346 107.81868398189545 405.70849856734276 1981.4487056136131 176.77029310166836 794.83037339150906 135.68309423327446 628.94630360603333 204.90397368371487 284.7227773219347 302.29955711960793 1701.8882329463959 358.88467000424862
leaf_count=38277 45668 6758 3342 5955 11952 3914 11066 4858 2987 1667 433 206683 4723 3968 3638 14395 3376 2054 4385 5160 1009 486 22172 6757 15221 1069 1719 15084 4719 11588 6679 4045 3751 4207 710 3301 159749 2353 7168 2208 592 1662 2026 792 1201 2080 3202 58856 33532 636 2000 457 1634 8175 748 3400 595 2754 836 1147 1262 7357 1476
internal_value=-0.000499852 0.0378542 -0.0464846 -0.0202773 -0.0178025 0.0509486 0.0368568 0.0426092 0.0191447 -0.0362558 0.0119719 -0.0597198 0.0523278 -0.0469309 0.0217986 -0.0613255 -0.0321819 0.0306057 0.015254 0.0557619 0.0483835 -0.0602095 0.00106053 -0.0113041 0.0562953 0.0238467 0.0413278 0.0375422 0.0235828 -0.0487831 0.0185138 0.0584716 0.0290829 0.0609753 -0.0324309 0.00625596 0.0674839 0.033362 -0.0644791 -0.0374789 0.0371071 0.0221145 -0.0292135 -0.0658205 0.0323057 0.0124263 0.00502215 0.0633457 0.0542477 0.0328602 0.0253339 0.0251647 -0.0338632 -0.0103935 0.00572293 0.0162442 0.0688858 -0.036829 -0.0286005 -0.0287295 0.0408369 -0.0469371 -0.0404881
internal_weight=176672 96328.5 80343.5 26960.7 18346.8 77981.7 42103.4 39189.3 11478.6 14347.1 12650 53382.8 27710.7 12007 10842.1 52376.7 5115.37 9397.56 1911.76 26556.6 3999.68 8746.39 7463.31 3260.61 4015.25 1006.1 2043.06 8525.61 5078.24 14310.7 2340.13 25295.7 1986.88 23308.8 952.901 1376.49 35878.3 1416.84 47261.3 2238.28 1679.39 1147.38 4048.9 45023.1 370.649 3999.02 3520.96 21854.6 9237.47 1102.26 1454.24 633.99 2158.35 2461.97 582.479 1800.46 34461.4 3551.74 2922.79 660.735 1058.99 1807.95 2914.17
internal_count=795674 434258 361416 116831 81716 352542 185931 173389 48857 63792 53959 244585 124532 53707 46169 240174 22866 40214 8471 119809 17924 39964 30649 13743 18208 4411 8477 36576 21492 62872 10085 114649 8609 106040 4086 5972 166611 6267 217308 9833 7271 4963 17204 207475 1687 16773 14719 99833 40977 4604 6207 2665 9139 10255 2382 7445 160344 15178 12424 2814 4464 7790 12542
is_linear=0
shrinkage=0.05


Tree=11
num_leaves=64
num_cat=0
split_feature=7 0 7 3 3 3 14 37 22 2 6 30 12 20 36 49 22 21 39 2 51 14 12 12 20 20 7 12 37 22 30 14 5 49 3 22 49 7 21 2 9 12 51 19 7 3 2 0 31 31 12 30 51 4 51 37 37 49 51 30 11 0 19
split_gain=115097 25734.9 10434.5 9063.07 8195.04 7052.89 6672.07 3478 3657.8 3004.55 2770.99 2745.05 2663.01 2637.77 2629.77 2435.78 2031.43 1953.26 1844.93 2559.73 1659.61 1643.47 1549.8 1459.24 1416.28 1141.54 1008.7 977.012 904.824 829.175 1231.37 824.633 819.989 777.617 764.35 762.11 1721.69 741.936 907.298 676.199 668.051 661.083 655.413 649.268 1083.18 646.374 628.666 1301.72 627.314 619.28 597.067 575.365 621.854 544.992 527.062 517.459 516.204 704.989 860.14 490.917 473.293 462.677 453.543
threshold=7.5000000000000009 0.093073595315217986 8.5000000000000018 6.4364173412323007 7.5189507007598886 7.3471419811248788 1.0000000180025095e-35 4.5000000000000009 1007620.0000000001 0.47493734955787664 3920.0000000000005 280320.00000000006 4346368.0000000009 0.97548621892929088 7.5000000000000009 0.75735294818878185 318704.00000000006 26277.500000000004 1.5000000000000002 0.23904761672019961 91.500000000000014 1.5000000000000002 278784.00000000006 270592.00000000006 3.3219565153121953 4.7563803195953378 5.5000000000000009 2015488.0000000002 34.500000000000007 668172.00000000012 206080.00000000003 1.5000000000000002 1.5000000000000002 0.87083333730697643 7.7233202457427987 1007620.0000000001 0.85164836049079906 5.5000000000000009 4287255.0000000009 0.057189542800188072 160.50000000000003 2853632.0000000005 91.500000000000014 103168.00000000001 5.5000000000000009 6.8880882263183603 0.29705883562564855 0.23764705657958987 84992.000000000015 25344.000000000004 3136.0000000000005 113408.00000000001 356.00000000000006 2.5000000000000004 18453.000000000004 31.500000000000004 29.500000000000004 0.90454545617103588 438.00000000000006 3031296.0000000005 0.11612737551331521 0.38799282908439642 16608256.000000002
decision_type=2 2 2 2 2 2 2 2 2 2 2 2 2 2 2 2 2 2 2 2 2 2 2 2 2 2 2 2 2 2 2 2 2 2 2 2 2 2 2 2 2 2 2 2 2 2 2 2 2 2 2 2 2 2 2 2 2 2 2 2 2 2 2
left_child=1 4 3 29 9 6 7 8 14 15 22 62 16 27 -3 26 -5 -12 46 -20 60 28 35 -13 -6 -17 -1 -4 32 55 -31 54 42 -24 -23 36 53 38 -25 -26 56 -41 -18 44 -7 -16 48 -48 -15 -35 -27 -44 -53 -9 59 -2 -38 58 -58 -11 -21 -8 -10
right_child=2 5 13 12 24 43 61 10 11 31 17 23 -14 18 45 25 21 -19 19 20 -22 34 33 37 39 50 -28 -29 -30 30 -32 -33 -34 49 -36 -37 40 -39 -40 41 -42 -43 51 -45 -46 -47 47 -49 -50 -51 -52 52 -54 -55 -56 -57 57 -59 -60 -61 -62 -63 -64
leaf_value=0.026480598665273886 -0.062870938526471368 0.063621730173017574 0.049995809895672982 -0.03109291050041435 0.068871273848190029 0.068677085502947488 -0.041804902486126269 0.067992161324259823 0.065170949979644899 0.0086113210034739606 -0.084412289139961585 0.062085121214217255 -0.045487373388048563 -0.064591135909421268 -0.040586031146474903 -0.063844127697107525 -0.045939957668658181 0.045356602383383418 -0.058717016601351271 -0.048192269811968447 -0.038989126248263659 -0.047641963086578198 0.045197560303464807 0.033115211451696887 -0.070898930882201491 -0.071266290537133486 -0.030149747027117292 -0.066444786968715142 0.055958519778770713 0.030846945786641669 -0.041446555209644367 -0.051439825359051478 0.04962826105624548 0.0097975433213342879 0.041409327908209032 0.069048795271846305 0.0096916244064578008 -0.060568435422829581 -0.085139894159062965 0.049101081082320093 -0.037861090408962794 -0.02905088470048885 0.071921839708077653 0.067375033649339972 -0.023059378957570993 0.04211576264464878 -0.052396024125568985 0.057990716618862959 0.025040104039157591 -0.070785928803866541 0.07178433000632925 -0.020554155246081854 0.040450453460243063 -0.048699669192369351 -0.072434645693505814 -0.03901678519436147 0.03755437108283436 0.051629277847801684 -0.086106307002384266 0.060835715874720656 0.065898635455570509 0.067455883042422574 -0.078617165017969948
leaf_weight=1226.4298511296511 6770.9261292219162 825.89841885864735 759.65813310444355 1629.8769905269146 2527.8455530852079 799.3152015209198 2775.3057845681906 7628.9862168580294 4490.4381612092257 831.30953441560268 630.20437298715115 629.13888294994831 1789.0848516970873 43751.38579288125 3467.4145329594612 7954.3255213201046 512.30272440612316 535.51644088327885 3141.1366481184959 99.439202815294266 816.39902928471565 911.15917913615704 1361.2764547020197 679.87926822900772 234.49910154938698 103.28515312075615 2187.2921237498522 235.11775641143322 3681.9884296804667 731.15260319411755 3015.7616817504168 366.74304987490177 1660.9926844239235 1077.2717400640249 326.60675168037415 9494.9939019531012 1500.798162996769 836.99978516995907 211.92527866363525 774.21367473900318 331.02316147089005 414.87681525945663 388.63390783965588 33345.643976807594 537.48810119926929 252.737753495574 1873.6109771430492 310.58800999820232 195.60427007079124 305.11301319301128 242.15662238001823 1010.8949812799692 710.45447708666325 100.72010615468025 116.45178958773613 3433.436279669404 397.45914554595947 3814.7424139976501 216.31612408161163 980.98620522022247 982.95736281573772 99.525959745049477 54.719218000769615
leaf_count=5146 30949 3625 3361 6752 11810 3758 12114 36559 20489 3559 2528 2721 7812 206819 14036 37333 2101 2249 14412 438 3556 3890 5917 2799 1057 483 9341 1066 16398 3088 13204 1630 7316 4461 1359 45578 6129 3388 850 3506 1372 1696 1643 159392 2242 1053 8422 1335 802 1226 1142 4148 2996 413 522 15006 1746 16487 884 4311 4567 400 221
internal_value=-0.000560449 0.036683 -0.045193 -0.0196895 -0.0171711 0.0493432 0.0354903 0.0409302 0.0177851 -0.0351084 0.0506024 0.0407172 0.0110095 -0.0581838 -0.0170383 -0.0453585 0.0203434 -0.0248104 -0.0597515 -0.0310192 0.0148076 0.0294553 0.0539549 -0.0030586 0.0464145 -0.0599798 -0.00980267 0.0224357 0.0377841 -0.0474623 -0.0273351 0.0171927 0.0221517 0.0183875 -0.0241297 0.0581091 0.0506799 -0.0267876 0.0049496 0.00651809 0.0311818 0.0218322 0.00473532 0.0660049 0.031803 -0.0349577 -0.0628898 -0.0366799 -0.0641916 -0.00802675 0.0289307 0.0170552 0.00463321 0.0664655 0.0302628 -0.0548494 0.0350421 0.043629 -0.0060972 0.0368981 0.0553824 -0.0380002 0.063423
internal_weight=173100 94361.3 78739.2 26573.3 17960.4 76400.9 41718.4 38843.6 11449.2 14009 27394.4 6903.1 12622 52165.9 4546.05 11713.5 10832.9 1165.72 51171.1 5039.93 1898.8 9203.03 26228.7 2357.94 3951.44 8299.77 3413.72 994.776 7965.27 13951.3 3746.91 2295.49 4283.28 2743.66 1237.77 23485 13990 1728.8 891.805 1423.59 6260.34 1189.09 2622.29 34682.4 1336.8 3720.15 46131.2 2184.2 43947 1382.38 345.442 2109.98 1721.35 7729.71 1928.75 10204.4 5929.32 4428.52 613.775 1812.3 1082.4 2874.83 4545.16
internal_count=795613 434173 361440 116662 81536 352637 187245 174731 49182 63467 125549 30468 54415 244778 18714 53445 46603 4777 240351 22973 8561 39851 120772 9758 18069 38958 14487 4427 34602 62247 16292 10022 18204 11604 5249 109168 63590 7037 3649 6259 26618 5202 10888 165392 6000 15089 217378 9757 207621 5687 1625 8787 7144 36972 8392 45955 25246 19117 2630 7870 5005 12514 20710
is_linear=0
shrinkage=0.05


Tree=12
num_leaves=64
num_cat=0
split_feature=7 0 7 3 3 22 7 30 36 37 3 22 14 42 6 7 3 32 14 14 10 37 37 49 17 51 3 11 5 14 37 3 51 22 3 13 22 16 22 30 38 17 19 51 51 31 37 49 31 40 0 30 37 49 40 15 49 3 5 40 21 37 3
split_gain=106076 23692.4 9901.54 8373.26 7713.21 6747.97 7290.95 3625.63 4266.36 3432.24 2591.55 2445.21 2419.78 2293.01 2128.31 1918.24 1774.64 1669.77 1589.13 1422.48 1681.85 1384.54 1348.99 1331.88 1263.92 1180.44 1137.16 1107.58 1072.69 1037.46 958.662 878.486 876.248 844.42 806.902 802.371 862.165 794.976 1065.81 752.063 731.426 706.233 702.306 712.73 680.951 655.849 649.406 646.693 616.624 592.782 564.938 556.769 537.213 532.493 527.383 494.576 493.079 490.529 458.045 452.095 593.065 429.377 421.75
threshold=7.5000000000000009 0.093073595315217986 8.5000000000000018 6.4411044120788583 7.5549771785736093 586232.00000000012 5.5000000000000009 228096.00000000003 12.500000000000002 30.500000000000004 7.683387517929078 239623.00000000003 1.5000000000000002 1.0000000180025095e-35 3920.0000000000005 5.5000000000000009 6.4124670028686532 1.0000000180025095e-35 1.5000000000000002 1.5000000000000002 3.5000000000000004 36.500000000000007 27.500000000000004 0.67708334326744091 3.5000000000000004 1918.0000000000002 7.683387517929078 1.0000000180025095e-35 5.5000000000000009 3.5000000000000004 34.500000000000007 7.7233202457427987 18453.000000000004 26397792.000000004 6.4609923362731942 1.0000000180025095e-35 353289.50000000006 749733.71875000012 953876.00000000012 206080.00000000003 4.5000000000000009 5.5000000000000009 167680.00000000003 3482.0000000000005 7574.0000000000009 3840.0000000000005 38.500000000000007 0.82843136787414562 65280.000000000007 4.5000000000000009 0.057189542800188072 4284928.0000000009 35.500000000000007 0.56696429848670971 1.0000000180025095e-35 4.5000000000000009 0.59411767125129711 4.2351024150848398 4.5000000000000009 1.0000000180025095e-35 1500020.3750000002 30.500000000000004 6.1351096630096444
decision_type=2 2 2 2 2 2 2 2 2 2 2 2 2 2 2 2 2 2 2 2 2 2 2 2 2 2 2 2 2 2 2 2 2 2 2 2 2 2 2 2 2 2 2 2 2 2 2 2 2 2 2 2 2 2 2 2 2 2 2 2 2 2 2
left_child=1 4 3 35 11 6 17 55 10 16 15 23 21 27 25 33 48 -3 28 20 22 26 -15 -1 -6 41 37 46 42 47 -24 -14 52 45 -10 36 -2 38 -5 -38 -20 -11 43 -13 59 62 50 -19 -8 -18 -4 -28 -30 -44 58 56 -7 -49 -23 -26 -61 -41 -9
right_child=2 5 13 12 24 7 9 8 34 14 -12 18 31 19 -16 -17 49 29 40 -21 -22 54 30 -25 44 -27 51 -29 32 -31 -32 -33 -34 -35 -36 -37 39 -39 -40 61 -42 -43 53 -45 -46 -47 -48 57 -50 -51 -52 -53 -54 -55 -56 -57 -58 -59 -60 60 -62 -63 -64
leaf_value=-0.0051244034110449208 -0.047970730387855591 -0.058829832654756088 0.071072254674474297 -0.025417870168726337 -0.06963455370189961 0.067647559956012793 -0.047206272444024207 -0.021645107329339244 0.016021695168919863 -0.0024883584156886549 0.054446332908121231 0.066887776636876714 -0.052341505859712069 -0.03046363970267691 -0.08681619452179612 -0.058105428701610978 -0.0052902495944675276 0.068014575802469876 -0.065949667140853305 -0.057976749043765076 -0.050738288121772369 0.050685588441804132 0.054972757095151425 -0.064216348841422466 0.067221519571567065 -0.073510632831443143 0.051461454504035588 -0.063208240030265525 -0.029332197695840931 -0.048259471495465708 -0.065945508327434552 0.025665244615758351 -0.073922746042690876 -0.071737426091099787 0.061794699617892371 -0.060247163176233756 0.015612256096834243 -0.052821459143907748 0.029757679281281337 -0.047970730387855591 0.031275620065427022 0.049415773119292544 0.0046062660363192197 -0.0477667842739746 -0.049160090346844904 -0.035138033048538457 0.048188553905558693 -0.047481357159956085 0.07551278428427087 0.052651295337228468 -0.04305045804561064 -0.0094472294620809843 0.047178586138956105 -0.048754473759069668 -0.081616574139051087 0.067404036022393476 -0.025985579385366272 0.045333149664501311 -0.071622790022040042 0.043874341458014901 -0.072066190590731091 -0.0067332885336269634 0.055398070003277303
leaf_weight=1138.0602762550116 4679.1209542453289 314.35981938242912 112.70631887018681 1720.0542942583561 221.773636251688 275.39453865587711 4257.3360238671303 211.53581736981869 1079.8882576972246 778.03237083554268 1609.7317606657743 404.7384539693594 1759.0734352171421 1131.43060323596 377.55340620875359 1821.302058249712 1583.4492928981781 7583.3509445339441 1522.888510003686 3000.9273506700993 1826.4362446069717 3614.8994505107403 1407.4971593469381 5886.8451210260391 2715.3174134939909 233.95142824947834 1611.8663895130157 40542.01312699914 262.81910440325737 224.61807636916637 184.65112465620041 453.36409431695938 193.05552379786968 249.61246262490749 8943.872278496623 5567.5166911333799 1174.0047976672649 791.29296359419823 1779.9304288178682 1486.4238557964563 220.96732223033905 4152.638309404254 678.62542124092579 202.68200524151325 155.10387405753136 338.5098240673542 239.22866331040859 148.80925777554512 104.01912441849709 610.96280214190483 2393.6711152046919 488.56982147693634 1772.8741192221642 1500.8630836606026 79.177383035421371 35566.79917396605 285.38120655715466 2940.2535535246134 77.365272685885429 628.46682314574718 132.79329171776772 948.63580659031868 1092.3039723932743
leaf_count=4880 20923 1291 517 7105 1025 1263 17568 882 4581 3356 7660 1871 7761 5109 1543 7624 6622 37404 7109 14225 8340 16252 6613 28211 13003 963 7132 196778 1137 994 847 1878 866 1005 42969 26421 4968 3474 7689 6605 965 18729 2868 887 637 1379 1037 616 452 2596 11092 2007 7783 7015 327 174735 1206 12728 328 2818 541 3884 4660
internal_value=-0.000502191 0.0356188 -0.0438181 -0.0188674 -0.0165081 0.0479131 0.025592 0.0580201 0.037656 -0.00132827 0.00147847 -0.0339901 0.0110232 -0.0566913 0.0276341 -0.021492 -0.0258132 0.0546385 -0.012519 -0.0312601 -0.0136305 0.0213391 0.0112634 -0.0546453 0.0460204 0.0360161 0.00716067 -0.0611266 0.00177869 0.057917 0.0409165 -0.0363523 0.0276288 0.013766 0.0568655 -0.0455638 -0.0356943 -0.00759486 0.00264235 -0.0172503 -0.0536192 0.0412267 -0.0188967 0.0286146 0.0531003 0.026797 -0.0303771 0.060156 -0.0442628 0.0108583 -0.0378923 0.0372961 0.0372911 -0.0321451 0.0453599 0.0666694 0.0200358 0.0408481 0.0481041 0.0576753 0.0235818 -0.0330941 0.0428915
internal_weight=169491 92421.5 77069.9 26231.3 17637.9 74783.7 23309.3 51474.3 15346.8 12097.9 5323 13784.4 12375.6 50838.6 5542.18 3713.26 6555.77 11211.4 6759.51 7550.94 4550.02 10163.2 2723.58 7024.91 3853.46 5164.62 6391.71 43287.6 5015.66 10897 1592.15 2212.44 2228.75 1891.96 10023.8 13855.7 8288.19 4291.28 3499.98 3609.06 1743.86 4930.67 2786.91 607.42 3631.68 1642.35 2745.61 10672.4 4361.36 2194.41 2506.38 2100.44 2035.69 2179.49 3771.44 36127.6 560.776 3089.06 3692.26 3476.58 761.26 2435.06 1303.84
internal_count=795754 434442 361312 116754 81616 352826 104862 247964 70760 51829 23210 63592 53953 244558 24591 15550 27238 53033 30501 35134 20909 44314 12569 33091 18024 23048 27407 209424 22427 51742 7460 9639 9786 7926 47550 62801 36380 18268 14794 15457 8074 22085 12641 2758 16999 6921 12646 50748 18020 9218 11609 9139 8920 9883 16907 177204 2469 13344 16580 16362 3359 10489 5542
is_linear=0
shrinkage=0.05


Tree=13
num_leaves=64
num_cat=0
split_feature=7 0 7 3 3 3 13 37 4 2 14 42 49 6 14 10 37 37 49 4 11 51 2 11 3 2 51 19 37 3 37 14 37 16 22 14 51 1 11 22 7 22 16 40 13 37 19 0 4 40 51 22 30 19 9 3 14 9 30 39 2 39 4
split_gain=97858.6 22005.2 9302.68 7684.95 6993.63 6470.66 5804.68 3123.35 2929.19 2696.95 2232.63 2198.36 2182.09 2172.78 1350.1 1577.17 1259.44 1218.67 1191.1 1720.77 1188.04 1146.69 1042.66 1039.17 1004.84 932.492 924.599 915.754 880.262 816.456 808.03 775.728 770.6 714.195 935.383 713.637 682.224 662.532 644.95 628.568 1003.89 616.217 988.789 603.461 672.394 575.492 544.423 527.097 500.306 473.131 467.048 451.757 1253.62 444.61 432.884 421.636 418.26 403.686 399.695 399.284 385.976 385.064 383.966
threshold=7.5000000000000009 0.093073595315217986 8.5000000000000018 6.4411044120788583 7.5549771785736093 7.3471419811248788 1.0000000180025095e-35 4.5000000000000009 1.5000000000000002 0.47493734955787664 1.5000000000000002 1.0000000180025095e-35 0.75735294818878185 3920.0000000000005 1.5000000000000002 3.5000000000000004 27.500000000000004 36.500000000000007 0.87083333730697643 1.5000000000000002 0.85572731494903576 242.00000000000003 0.29705883562564855 1.0000000180025095e-35 7.7233202457427987 0.42481203377246862 7410.0000000000009 3808.0000000000005 34.500000000000007 7.2914326190948495 35.500000000000007 1.5000000000000002 34.500000000000007 774497.50000000012 747932.00000000012 1.5000000000000002 7574.0000000000009 2.2933975458145146 0.46470284461975103 393224.00000000006 5.5000000000000009 978956.00000000012 47431.253906250007 1.0000000180025095e-35 1.0000000180025095e-35 38.500000000000007 1537792.0000000002 0.057189542800188072 2.5000000000000004 1.0000000180025095e-35 18453.000000000004 804884.00000000012 65792.000000000015 98048.000000000015 636.50000000000011 7.0675230026245126 16391.000000000004 721.50000000000011 26133.000000000004 1.0000000180025095e-35 0.41421568393707281 1.0000000180025095e-35 1.5000000000000002
decision_type=2 2 2 2 2 2 2 2 2 2 2 2 2 2 2 2 2 2 2 2 2 2 2 2 2 2 2 2 2 2 2 2 2 2 2 2 2 2 2 2 2 2 2 2 2 2 2 2 2 2 2 2 2 2 2 2 2 2 2 2 2 2 2
left_child=1 4 3 30 9 6 7 8 27 12 17 23 26 18 15 16 -13 24 48 21 36 32 -10 45 33 56 31 38 -18 -12 51 37 -20 34 -5 50 -6 -1 -3 40 -7 -14 -43 44 -32 47 -26 -4 -9 54 53 -2 -53 -11 -19 -17 -25 -41 -23 -44 -61 -37 -48
right_child=2 5 11 10 20 39 -8 13 22 35 29 14 41 -15 -16 55 28 49 19 -21 -22 58 -24 25 46 -27 -28 -29 -30 -31 43 -33 -34 -35 -36 61 -38 -39 -40 57 -42 42 59 -45 -46 -47 62 -49 -50 -51 -52 52 -54 -55 -56 -57 -58 -59 -60 60 -62 -63 -64
leaf_value=0.02715932691482217 -0.057894001494083573 0.0011864433162016047 0.069115689125913884 -0.026403326564724605 0.059099676856048833 0.066770772729452962 -0.036025190029185528 0.062303338928945622 0.0011864433162016047 -0.020883132477797533 -0.05402527117797068 -0.029228754290036497 -0.063922850243731566 0.0011864433162016047 -0.056616918682423391 -0.057768438607467915 0.053352299523829971 0.048289603828524652 0.0074214807025642275 0.06648506615512563 -0.036117209317429219 0.035154421733817436 0.065289990025310163 -0.062472617335489228 0.060514197857931953 0.057559512066489772 -0.058601818858895864 0.0011864433162016047 -0.063906931200431422 0.014129922845574464 -0.0010843855134953808 -0.054990648635323602 0.054114491532914144 -0.050243159246280505 0.025610193606610446 -0.069765163773272923 -0.048342678536166264 -0.056073569281021474 0.071475263361999372 0.065299222704438192 -0.0021776995992394189 0.072589105919294947 -0.056250127487258529 -0.07072979333919259 -0.04929023034727259 0.044236341448727443 -0.025335248631806709 -0.0418787839630059 0.0011864433162016047 -0.078050110333903466 -0.068115760641540943 0.069717945250013943 -0.045630459808974268 0.04665591207242234 -0.079755756770136244 0.019478804206884904 0.036723857948274971 -0.029327102364773702 0.0011864433162016047 -0.06907355113630749 0.074061957156740507 0.073794677199013267 0.037619725574783526
